tree
version=v3
num_class=1
num_tree_per_iteration=1
label_index=0
max_feature_idx=5
objective=regression
feature_names=Column_0 Column_1 Column_2 Column_3 Column_4 Column_5
feature_infos=2:0:4:3:1:5:6 [7.5:59] [8.4000000000000004:63.399999999999999] [8.8000000000000007:68] [1.7387999999999999:18.754200000000001] [1.0476000000000001:8.1420000000000012]
tree_sizes=373 372 373 373 372 374 374 372 373 373 374 377 377 374 375 374 373 375 364 375 376 371 371 371 371 371 370 371 369 371 371 367 371 371 371 370 371 371 371 368 294 297 295 295 297 297 296 294 300 300 295 298 298 297 297 299 295 297 297 298 295 293 292 295 295 295 295 295 296 296 372 295 296 293 373 297 297 373 375 295 375 296 374 297 295 297 373 296 297 296 374 297 296 297 374 374 296 297 296 297 377 296 298 298 296 298 373 296 298 375 298 296 296 297 375 297 297 298 296 294 297 297 375 298 295 297 377 376 375 377 376 295 298 297 375 298 297 298 374 298 296 296 297 297 295 297 296 296 296 296 296 296 297 296 297 297 296 297 296 298 373 376 374 377 373 297 374 297 297 372 376 374 377 297 376 297 374 376 298 371 373 373 374 373 374 373 374 373 374 296 374 374 371 372 374 374 374 374 296 294 295 295 297 297 297 297 297 297 297 297 297 297 297 297 295 296 298 298 297 297 375 294 375 293 375 375 375 373 374 292 374 294 374 294 374 376 376 295 374 293 376 376 375 376 299 378 376 377 376 378 374 377 377 376 377 377 375 377 298 374 376 298 377 377 298 298 297 373 298 375 298 375 298 296 375 374 298 298 298 376 374 363 374 373 375 374 375 372 374 372 376 372 374 375 375 374 374 375 375 372 297 297 375 297 297 376 375 375 297 297 298 298 297 297 375 373 377 298 377 376 374 374 373 374 372 376 373 374 375 374 374 374 374 375 374 374 375 375 374 375 375 296 376 375 376 372 375 297 372 298 374 298 297 375 375 375 298 374 375 297 373 374 373 374 373 374 374 374 374 373 374 374 374 371 375 373 372 375 376 374 375 375 376 376 375 375 378 377 374 377 376 376 378 376 375 378 376 377 377 376

Tree=0
num_leaves=3
num_cat=0
split_feature=1 1
split_gain=7.81453e+06 638819
threshold=31.750000000000004 20.200000000000003
decision_type=2 2
left_child=1 -1
right_child=-2 -3
leaf_value=387.46607199452484 428.49729952630469 399.51539006537001
leaf_weight=22 25 22
leaf_count=22 25 22
internal_value=403.98 393.491
internal_weight=0 44
internal_count=69 44
shrinkage=1


Tree=1
num_leaves=3
num_cat=0
split_feature=1 2
split_gain=7.05261e+06 603338
threshold=31.750000000000004 22.250000000000004
decision_type=2 2
left_child=1 -1
right_child=-2 -3
leaf_value=-15.55971497245457 23.291134490251544 -3.8376743134998139
leaf_weight=23 25 21
leaf_count=23 25 21
internal_value=0 -9.9651
internal_weight=0 44
internal_count=69 44
shrinkage=0.05


Tree=2
num_leaves=3
num_cat=0
split_feature=5 3
split_gain=7.47006e+06 556021
threshold=5.131800000000001 25.150000000000002
decision_type=2 2
left_child=1 -1
right_child=-2 -3
leaf_value=-14.474286270141603 25.246082902991255 -3.3852698802947998
leaf_weight=26 23 20
leaf_count=26 23 20
internal_value=0 -9.65297
internal_weight=0 46
internal_count=69 46
shrinkage=0.05


Tree=3
num_leaves=3
num_cat=0
split_feature=5 2
split_gain=6.74173e+06 510735
threshold=5.131800000000001 22.750000000000004
decision_type=2 2
left_child=1 -1
right_child=-2 -3
leaf_value=-13.791127366286057 23.983778381347658 -3.1632837200164796
leaf_weight=26 23 20
leaf_count=26 23 20
internal_value=0 -9.17033
internal_weight=0 46
internal_count=69 46
shrinkage=0.05


Tree=4
num_leaves=3
num_cat=0
split_feature=5 2
split_gain=6.08441e+06 460939
threshold=5.131800000000001 22.750000000000004
decision_type=2 2
left_child=1 -1
right_child=-2 -3
leaf_value=-13.101570892333985 22.78458938598633 -3.0051196694374087
leaf_weight=26 23 20
leaf_count=26 23 20
internal_value=0 -8.71181
internal_weight=0 46
internal_count=69 46
shrinkage=0.05


Tree=5
num_leaves=3
num_cat=0
split_feature=5 2
split_gain=5.49883e+06 468648
threshold=5.3202000000000007 22.750000000000004
decision_type=2 2
left_child=1 -1
right_child=-2 -3
leaf_value=-12.446492415208084 22.328541088104249 -2.4038989294142952
leaf_weight=26 22 21
leaf_count=26 22 21
internal_value=0 -7.95938
internal_weight=0 47
internal_count=69 47
shrinkage=0.05


Tree=6
num_leaves=3
num_cat=0
split_feature=3 1
split_gain=4.71282e+06 491133
threshold=39.100000000000009 21.350000000000005
decision_type=2 2
left_child=1 -1
right_child=-2 -3
leaf_value=-11.726458118580005 20.712321441823789 -1.3888178157806399
leaf_weight=27 22 20
leaf_count=27 22 20
internal_value=0 -7.32746
internal_weight=0 47
internal_count=69 47
shrinkage=0.05


Tree=7
num_leaves=3
num_cat=0
split_feature=5 2
split_gain=4.59888e+06 317343
threshold=5.131800000000001 22.750000000000004
decision_type=2 2
left_child=1 -1
right_child=-2 -3
leaf_value=-11.237844995351939 19.78731314410334 -2.8603950881958009
leaf_weight=26 23 20
leaf_count=26 23 20
internal_value=0 -7.59548
internal_weight=0 46
internal_count=69 46
shrinkage=0.05


Tree=8
num_leaves=3
num_cat=0
split_feature=1 1
split_gain=3.9447e+06 557020
threshold=33.250000000000007 22.050000000000004
decision_type=2 2
left_child=1 -1
right_child=-2 -3
leaf_value=-10.609450820396688 20.168182353973393 0.23704730272293092
leaf_weight=29 20 20
leaf_count=29 20 20
internal_value=0 -6.18231
internal_weight=0 49
internal_count=69 49
shrinkage=0.05


Tree=9
num_leaves=3
num_cat=0
split_feature=3 1
split_gain=3.57631e+06 339615
threshold=39.100000000000009 21.350000000000005
decision_type=2 2
left_child=1 -1
right_child=-2 -3
leaf_value=-10.063284075701679 18.020713103901254 -1.466901171207428
leaf_weight=27 22 20
leaf_count=27 22 20
internal_value=0 -6.40525
internal_weight=0 47
internal_count=69 47
shrinkage=0.05


Tree=10
num_leaves=3
num_cat=0
split_feature=5 3
split_gain=3.57267e+06 212710
threshold=5.131800000000001 25.150000000000002
decision_type=2 2
left_child=1 -1
right_child=-2 -3
leaf_value=-9.7134492140549895 17.403624842477882 -2.8547569417953493
leaf_weight=26 23 20
leaf_count=26 23 20
internal_value=0 -6.73141
internal_weight=0 46
internal_count=69 46
shrinkage=0.05


Tree=11
num_leaves=3
num_cat=0
split_feature=1 1
split_gain=3.02694e+06 391723
threshold=33.250000000000007 22.050000000000004
decision_type=2 2
left_child=1 -1
right_child=-2 -3
leaf_value=-9.1552602439091118 17.639859685897829 -0.059401021003723145
leaf_weight=29 20 20
leaf_count=29 20 20
internal_value=0 -5.44266
internal_weight=0 49
internal_count=69 49
shrinkage=0.05


Tree=12
num_leaves=3
num_cat=0
split_feature=1 1
split_gain=2.73181e+06 353530
threshold=33.250000000000007 22.050000000000004
decision_type=2 2
left_child=1 -1
right_child=-2 -3
leaf_value=-8.6974972955111802 16.757866343408825 -0.056430938243865969
leaf_weight=29 20 20
leaf_count=29 20 20
internal_value=0 -5.17053
internal_weight=0 49
internal_count=69 49
shrinkage=0.05


Tree=13
num_leaves=3
num_cat=0
split_feature=1 1
split_gain=2.46546e+06 319061
threshold=33.250000000000007 22.050000000000004
decision_type=2 2
left_child=1 -1
right_child=-2 -3
leaf_value=-8.2626224780904831 15.919973371028901 -0.05360934734344483
leaf_weight=29 20 20
leaf_count=29 20 20
internal_value=0 -4.912
internal_weight=0 49
internal_count=69 49
shrinkage=0.05


Tree=14
num_leaves=3
num_cat=0
split_feature=3 3
split_gain=2.24833e+06 184699
threshold=39.100000000000009 25.150000000000002
decision_type=2 2
left_child=1 -1
right_child=-2 -3
leaf_value=-7.9220079421997074 14.262009193680505 -1.6174445606413344
leaf_weight=26 22 21
leaf_count=26 22 21
internal_value=0 -5.10508
internal_weight=0 47
internal_count=69 47
shrinkage=0.05


Tree=15
num_leaves=3
num_cat=0
split_feature=5 5
split_gain=2.41505e+06 90651.5
threshold=5.131800000000001 3.7772000000000001
decision_type=2 2
left_child=1 -1
right_child=-2 -3
leaf_value=-7.6323268585205088 14.245343457097594 -3.176206922531128
leaf_weight=25 23 21
leaf_count=25 23 21
internal_value=0 -5.59801
internal_weight=0 46
internal_count=69 46
shrinkage=0.05


Tree=16
num_leaves=3
num_cat=0
split_feature=5 5
split_gain=2.17959e+06 81813
threshold=5.131800000000001 3.7772000000000001
decision_type=2 2
left_child=1 -1
right_child=-2 -3
leaf_value=-7.2507106323242185 13.533075921950132 -3.0173965442748298
leaf_weight=25 23 21
leaf_count=25 23 21
internal_value=0 -5.31811
internal_weight=0 46
internal_count=69 46
shrinkage=0.05


Tree=17
num_leaves=3
num_cat=0
split_feature=5 5
split_gain=1.97953e+06 124936
threshold=5.8904000000000005 3.8301000000000003
decision_type=2 2
left_child=1 -1
right_child=-2 -3
leaf_value=-6.8402118819100526 13.721092900775728 -1.6660370683670047
leaf_weight=28 21 20
leaf_count=28 21 20
internal_value=0 -4.68431
internal_weight=0 48
internal_count=69 48
shrinkage=0.05


Tree=18
num_leaves=3
num_cat=0
split_feature=2 4
split_gain=1.62159e+06 175055
threshold=35.500000000000007 7.3449
decision_type=2 2
left_child=1 -1
right_child=-2 -3
leaf_value=-6.5074085498678276 12.869188723564148 -0.42687300741672518
leaf_weight=29 20 20
leaf_count=29 20 20
internal_value=0 -4.02556
internal_weight=0 49
internal_count=69 49
shrinkage=0.05


Tree=19
num_leaves=3
num_cat=0
split_feature=5 5
split_gain=1.66017e+06 57578.7
threshold=5.131800000000001 3.5409000000000002
decision_type=2 2
left_child=1 -1
right_child=-2 -3
leaf_value=-6.6731688690185553 11.796139970551367 -3.1047293887688565
leaf_weight=20 23 26
leaf_count=20 23 26
internal_value=0 -4.65622
internal_weight=0 46
internal_count=69 46
shrinkage=0.05


Tree=20
num_leaves=3
num_cat=0
split_feature=5 4
split_gain=1.29457e+06 30544.8
threshold=5.4727500000000004 6.7129500000000011
decision_type=2 2
left_child=1 -1
right_child=-2 -3
leaf_value=-6.3428518662085906 10.024571735858919 -3.7437957859039308
leaf_weight=26 20 20
leaf_count=26 20 20
internal_value=0 -5.21283
internal_weight=0 46
internal_count=66 46
shrinkage=0.05


Tree=21
num_leaves=3
num_cat=0
split_feature=3 3
split_gain=880438 13110.4
threshold=36.850000000000009 23.150000000000002
decision_type=2 2
left_child=1 -1
right_child=-2 -3
leaf_value=-5.8144962855747773 7.0738648335138965 -4.0477157683599563
leaf_weight=21 24 21
leaf_count=21 24 21
internal_value=0 -4.93111
internal_weight=0 42
internal_count=66 42
shrinkage=0.05


Tree=22
num_leaves=3
num_cat=0
split_feature=3 3
split_gain=794595 11832.1
threshold=36.850000000000009 23.150000000000002
decision_type=2 2
left_child=1 -1
right_child=-2 -3
leaf_value=-5.5237714131673181 6.7201714038848879 -3.8453300294421968
leaf_weight=21 24 21
leaf_count=21 24 21
internal_value=0 -4.68455
internal_weight=0 42
internal_count=66 42
shrinkage=0.05


Tree=23
num_leaves=3
num_cat=0
split_feature=2 3
split_gain=719414 13873.3
threshold=32.500000000000007 23.150000000000002
decision_type=2 2
left_child=1 -1
right_child=-2 -3
leaf_value=-5.2475827716645744 6.6271837773530384 -3.4508932265368375
leaf_weight=21 23 22
leaf_count=21 23 22
internal_value=0 -4.32835
internal_weight=0 43
internal_count=66 43
shrinkage=0.05


Tree=24
num_leaves=3
num_cat=0
split_feature=5 5
split_gain=948818 5492.71
threshold=5.4727500000000004 3.5409000000000002
decision_type=2 2
left_child=1 -1
right_child=-2 -3
leaf_value=-5.0609279346466067 8.6068900680541987 -3.9587778604947603
leaf_weight=20 20 26
leaf_count=20 20 26
internal_value=0 -4.43797
internal_weight=0 46
internal_count=66 46
shrinkage=0.05


Tree=25
num_leaves=3
num_cat=0
split_feature=4 4
split_gain=716754 7.73997
threshold=9.1611000000000029 6.2817000000000016
decision_type=2 2
left_child=1 -1
right_child=-2 -3
leaf_value=-4.5506863185337618 6.2120149364471438 -4.5072245931625368
leaf_weight=21 25 20
leaf_count=21 25 20
internal_value=0 -4.52949
internal_weight=0 41
internal_count=66 41
shrinkage=0.05


Tree=26
num_leaves=3
num_cat=0
split_feature=2 3
split_gain=546750 9159.4
threshold=32.500000000000007 23.150000000000002
decision_type=2 2
left_child=1 -1
right_child=-2 -3
leaf_value=-4.5129094668797087 5.7847678542137153 -3.0530305071310568
leaf_weight=21 23 22
leaf_count=21 23 22
internal_value=0 -3.76599
internal_weight=0 43
internal_count=66 43
shrinkage=0.05


Tree=27
num_leaves=3
num_cat=0
split_feature=4 1
split_gain=605695 160.282
threshold=9.1611000000000029 19.050000000000004
decision_type=2 2
left_child=1 -1
right_child=-2 -3
leaf_value=-4.2525612604050407 5.7182295103073129 -4.0547825050354005
leaf_weight=21 25 20
leaf_count=21 25 20
internal_value=0 -4.15608
internal_weight=0 41
internal_count=66 41
shrinkage=0.05


Tree=28
num_leaves=3
num_cat=0
split_feature=5 5
split_gain=685861 2208.46
threshold=5.4727500000000004 3.5409000000000002
decision_type=2 2
left_child=1 -1
right_child=-2 -3
leaf_value=-4.1509052634239199 7.3349840188026434 -3.452041901074923
leaf_weight=20 20 26
leaf_count=20 20 26
internal_value=0 -3.7559
internal_weight=0 46
internal_count=66 46
shrinkage=0.05


Tree=29
num_leaves=3
num_cat=0
split_feature=1 1
split_gain=414879 5201.06
threshold=29.950000000000003 19.050000000000004
decision_type=2 2
left_child=1 -1
right_child=-2 -3
leaf_value=-3.8373796871730259 5.0451021028601604 -2.7372867172414606
leaf_weight=21 23 22
leaf_count=21 23 22
internal_value=0 -3.27454
internal_weight=0 43
internal_count=66 43
shrinkage=0.05


Tree=30
num_leaves=3
num_cat=0
split_feature=5 5
split_gain=580479 1347.67
threshold=5.4727500000000004 3.5409000000000002
decision_type=2 2
left_child=1 -1
right_child=-2 -3
leaf_value=-3.7569914329051972 6.7548917770385746 -3.2110594217593857
leaf_weight=20 20 26
leaf_count=20 20 26
internal_value=0 -3.44842
internal_weight=0 46
internal_count=66 46
shrinkage=0.05


Tree=31
num_leaves=3
num_cat=0
split_feature=5 4
split_gain=523882 14238
threshold=5.4727500000000004 6.7129500000000011
decision_type=2 2
left_child=1 -1
right_child=-2 -3
leaf_value=-4.0475151905646696 6.4171471309661872 -2.2730305132269861
leaf_weight=26 20 20
leaf_count=26 20 20
internal_value=0 -3.276
internal_weight=0 46
internal_count=66 46
shrinkage=0.05


Tree=32
num_leaves=3
num_cat=0
split_feature=1 1
split_gain=310136 4526.66
threshold=31.350000000000005 19.050000000000004
decision_type=2 2
left_child=1 -1
right_child=-2 -3
leaf_value=-3.2760847707589473 4.5254313729026103 -2.2607443930986135
leaf_weight=21 22 23
leaf_count=21 22 23
internal_value=0 -2.74534
internal_weight=0 44
internal_count=66 44
shrinkage=0.05


Tree=33
num_leaves=3
num_cat=0
split_feature=5 4
split_gain=445015 12130.9
threshold=5.4727500000000004 6.7129500000000011
decision_type=2 2
left_child=1 -1
right_child=-2 -3
leaf_value=-3.7250090892498307 5.9209146142005924 -2.0870846712589262
leaf_weight=26 20 20
leaf_count=26 20 20
internal_value=0 -3.01287
internal_weight=0 46
internal_count=66 46
shrinkage=0.05


Tree=34
num_leaves=3
num_cat=0
split_feature=5 2
split_gain=401626 629.022
threshold=5.4727500000000004 22.250000000000004
decision_type=2 2
left_child=1 -1
right_child=-2 -3
leaf_value=-2.6852015664180122 5.6248686414957056 -3.0553406769579112
leaf_weight=24 20 22
leaf_count=24 20 22
internal_value=0 -2.86222
internal_weight=0 46
internal_count=66 46
shrinkage=0.05


Tree=35
num_leaves=3
num_cat=0
split_feature=4 4
split_gain=294430 438.076
threshold=9.1611000000000029 6.2817000000000016
decision_type=2 2
left_child=1 -1
right_child=-2 -3
leaf_value=-2.7241156793776016 4.000859649896622 -3.0510887098312378
leaf_weight=21 25 20
leaf_count=21 25 20
internal_value=0 -2.88361
internal_weight=0 41
internal_count=66 41
shrinkage=0.05


Tree=36
num_leaves=3
num_cat=0
split_feature=1 1
split_gain=215909 2357.63
threshold=31.350000000000005 19.050000000000004
decision_type=2 2
left_child=1 -1
right_child=-2 -3
leaf_value=-2.6672709362847464 3.7822769165039065 -1.9345121337019879
leaf_weight=21 22 23
leaf_count=21 22 23
internal_value=0 -2.28424
internal_weight=0 44
internal_count=66 44
shrinkage=0.05


Tree=37
num_leaves=3
num_cat=0
split_feature=4 1
split_gain=251288 24.7296
threshold=8.8274000000000008 19.050000000000004
decision_type=2 2
left_child=1 -1
right_child=-2 -3
leaf_value=-2.6970192843675616 3.5777608096599582 -2.7756474661827091
leaf_weight=20 26 20
leaf_count=20 26 20
internal_value=0 -2.73633
internal_weight=0 40
internal_count=66 40
shrinkage=0.05


Tree=38
num_leaves=3
num_cat=0
split_feature=5 3
split_gain=293301 1555.45
threshold=5.4727500000000004 24.150000000000002
decision_type=2 2
left_child=1 -1
right_child=-2 -3
leaf_value=-2.1678519730567931 4.8184565103054053 -2.7515622201420014
leaf_weight=25 20 21
leaf_count=25 20 21
internal_value=0 -2.43433
internal_weight=0 46
internal_count=66 46
shrinkage=0.05


Tree=39
num_leaves=3
num_cat=0
split_feature=3 3
split_gain=173906 2064.24
threshold=38.500000000000007 23.150000000000002
decision_type=2 2
left_child=1 -1
right_child=-2 -3
leaf_value=-2.3400253478969848 3.5324044772556853 -1.661226648837328
leaf_weight=21 21 24
leaf_count=21 21 24
internal_value=0 -1.978
internal_weight=0 45
internal_count=66 45
shrinkage=0.05


Tree=40
num_leaves=2
num_cat=0
split_feature=4
split_gain=63151.3
threshold=10.984500000000001
decision_type=2
left_child=-1
right_child=-2
leaf_value=-2.1149152543289325 1.175364206314087
leaf_weight=35 25
leaf_count=35 25
internal_value=0
internal_weight=0
internal_count=60
shrinkage=0.05


Tree=41
num_leaves=2
num_cat=0
split_feature=1
split_gain=13197.1
threshold=26.850000000000005
decision_type=2
left_child=-1
right_child=-2
leaf_value=-1.4483055945485832 0.034771139423052475
leaf_weight=30 30
leaf_count=30 30
internal_value=0
internal_weight=0
internal_count=60
shrinkage=0.05


Tree=42
num_leaves=2
num_cat=0
split_feature=4
split_gain=55428.8
threshold=10.984500000000001
decision_type=2
left_child=-1
right_child=-2
leaf_value=-1.9558223456995831 1.1267219877243042
leaf_weight=35 25
leaf_count=35 25
internal_value=0
internal_weight=0
internal_count=60
shrinkage=0.05


Tree=43
num_leaves=2
num_cat=0
split_feature=4
split_gain=50024.5
threshold=10.984500000000001
decision_type=2
left_child=-1
right_child=-2
leaf_value=-1.8580312170301168 1.0703859043121338
leaf_weight=35 25
leaf_count=35 25
internal_value=0
internal_weight=0
internal_count=60
shrinkage=0.05


Tree=44
num_leaves=2
num_cat=0
split_feature=1
split_gain=9204.96
threshold=26.850000000000005
decision_type=2
left_child=-1
right_child=-2
leaf_value=-1.2252706778049469 0.013341655731201172
leaf_weight=30 30
leaf_count=30 30
internal_value=0
internal_weight=0
internal_count=60
shrinkage=0.05


Tree=45
num_leaves=2
num_cat=0
split_feature=1
split_gain=8307.48
threshold=26.850000000000005
decision_type=2
left_child=-1
right_child=-2
leaf_value=-1.1640071582794189 0.012674476305643717
leaf_weight=30 30
leaf_count=30 30
internal_value=0
internal_weight=0
internal_count=60
shrinkage=0.05


Tree=46
num_leaves=2
num_cat=0
split_feature=3
split_gain=13860.1
threshold=35.600000000000009
decision_type=2
left_child=-1
right_child=-2
leaf_value=-1.2114292947685019 0.32213915311373198
leaf_weight=34 26
leaf_count=34 26
internal_value=0
internal_weight=0
internal_count=60
shrinkage=0.05


Tree=47
num_leaves=2
num_cat=0
split_feature=4
split_gain=41380.2
threshold=10.984500000000001
decision_type=2
left_child=-1
right_child=-2
leaf_value=-1.629292967574937 1.0341168794631959
leaf_weight=35 25
leaf_count=35 25
internal_value=0
internal_weight=0
internal_count=60
shrinkage=0.05


Tree=48
num_leaves=2
num_cat=0
split_feature=1
split_gain=5714.63
threshold=26.850000000000005
decision_type=2
left_child=-1
right_child=-2
leaf_value=-0.98152676254510896 -0.0055970986684163414
leaf_weight=30 30
leaf_count=30 30
internal_value=0
internal_weight=0
internal_count=60
shrinkage=0.05


Tree=49
num_leaves=2
num_cat=0
split_feature=1
split_gain=5157.46
threshold=26.850000000000005
decision_type=2
left_child=-1
right_child=-2
leaf_value=-0.93245042026042935 -0.0053172095616658525
leaf_weight=30 30
leaf_count=30 30
internal_value=0
internal_weight=0
internal_count=60
shrinkage=0.05


Tree=50
num_leaves=2
num_cat=0
split_feature=3
split_gain=9808.26
threshold=35.600000000000009
decision_type=2
left_child=-1
right_child=-2
leaf_value=-1.004472721674863 0.28560359844794642
leaf_weight=34 26
leaf_count=34 26
internal_value=0
internal_weight=0
internal_count=60
shrinkage=0.05


Tree=51
num_leaves=2
num_cat=0
split_feature=1
split_gain=4082.5
threshold=26.850000000000005
decision_type=2
left_child=-1
right_child=-2
leaf_value=-0.83560426910718277 -0.010731026331583659
leaf_weight=30 30
leaf_count=30 30
internal_value=0
internal_weight=0
internal_count=60
shrinkage=0.05


Tree=52
num_leaves=2
num_cat=0
split_feature=1
split_gain=3684.45
threshold=26.850000000000005
decision_type=2
left_child=-1
right_child=-2
leaf_value=-0.79382403055826822 -0.01019448200861613
leaf_weight=30 30
leaf_count=30 30
internal_value=0
internal_weight=0
internal_count=60
shrinkage=0.05


Tree=53
num_leaves=2
num_cat=0
split_feature=5
split_gain=3339.31
threshold=4.359700000000001
decision_type=2
left_child=-1
right_child=-2
leaf_value=-0.82326228713989258 -0.06665630613054549
leaf_weight=25 35
leaf_count=25 35
internal_value=0
internal_weight=0
internal_count=60
shrinkage=0.05


Tree=54
num_leaves=2
num_cat=0
split_feature=3
split_gain=7482.54
threshold=35.600000000000009
decision_type=2
left_child=-1
right_child=-2
leaf_value=-0.85109022750574015 0.27570255627998941
leaf_weight=34 26
leaf_count=34 26
internal_value=0
internal_weight=0
internal_count=60
shrinkage=0.05


Tree=55
num_leaves=2
num_cat=0
split_feature=1
split_gain=2646.13
threshold=26.850000000000005
decision_type=2
left_child=-1
right_child=-2
leaf_value=-0.67672025303045913 -0.012625147501627604
leaf_weight=30 30
leaf_count=30 30
internal_value=0
internal_weight=0
internal_count=60
shrinkage=0.05


Tree=56
num_leaves=2
num_cat=0
split_feature=4
split_gain=31007.9
threshold=10.984500000000001
decision_type=2
left_child=-1
right_child=-2
leaf_value=-1.2880925192151751 1.0174758254289626
leaf_weight=35 25
leaf_count=35 25
internal_value=0
internal_weight=0
internal_count=60
shrinkage=0.05


Tree=57
num_leaves=2
num_cat=0
split_feature=3
split_gain=5538.54
threshold=35.600000000000009
decision_type=2
left_child=-1
right_child=-2
leaf_value=-0.73115423234070054 0.23827754809306217
leaf_weight=34 26
leaf_count=34 26
internal_value=0
internal_weight=0
internal_count=60
shrinkage=0.05


Tree=58
num_leaves=2
num_cat=0
split_feature=3
split_gain=4998.54
threshold=35.600000000000009
decision_type=2
left_child=-1
right_child=-2
leaf_value=-0.69459651831318359 0.22636375702344458
leaf_weight=34 26
leaf_count=34 26
internal_value=0
internal_weight=0
internal_count=60
shrinkage=0.05


Tree=59
num_leaves=2
num_cat=0
split_feature=1
split_gain=1403.5
threshold=26.850000000000005
decision_type=2
left_child=-1
right_child=-2
leaf_value=-0.52256254658102985 -0.038913536071777347
leaf_weight=30 30
leaf_count=30 30
internal_value=0
internal_weight=0
internal_count=60
shrinkage=0.05


Tree=60
num_leaves=2
num_cat=0
split_feature=5
split_gain=82759.1
threshold=4.6059500000000009
decision_type=2
left_child=-1
right_child=-2
leaf_value=-1.5200039468492781 2.0588168563445413
leaf_weight=35 30
leaf_count=35 30
internal_value=0
internal_weight=0
internal_count=65
shrinkage=0.05


Tree=61
num_leaves=2
num_cat=0
split_feature=2
split_gain=62290
threshold=28.850000000000005
decision_type=2
left_child=-1
right_child=-2
leaf_value=-1.2640461583932243 1.8497175963788199
leaf_weight=36 29
leaf_count=36 29
internal_value=0
internal_weight=0
internal_count=65
shrinkage=0.05


Tree=62
num_leaves=2
num_cat=0
split_feature=4
split_gain=64614
threshold=8.8274000000000008
decision_type=2
left_child=-1
right_child=-2
leaf_value=-1.3863692546592041 1.769867580936801
leaf_weight=34 31
leaf_count=34 31
internal_value=0
internal_weight=0
internal_count=65
shrinkage=0.05


Tree=63
num_leaves=2
num_cat=0
split_feature=5
split_gain=63897.5
threshold=4.6059500000000009
decision_type=2
left_child=-1
right_child=-2
leaf_value=-1.3384150862693787 1.8062468302249908
leaf_weight=35 30
leaf_count=35 30
internal_value=0
internal_weight=0
internal_count=65
shrinkage=0.05


Tree=64
num_leaves=2
num_cat=0
split_feature=5
split_gain=57667.5
threshold=4.6059500000000009
decision_type=2
left_child=-1
right_child=-2
leaf_value=-1.2714943112645831 1.7159343759218855
leaf_weight=35 30
leaf_count=35 30
internal_value=0
internal_weight=0
internal_count=65
shrinkage=0.05


Tree=65
num_leaves=2
num_cat=0
split_feature=5
split_gain=52044.9
threshold=4.6059500000000009
decision_type=2
left_child=-1
right_child=-2
leaf_value=-1.2079196164757013 1.6301376366615294
leaf_weight=35 30
leaf_count=35 30
internal_value=0
internal_weight=0
internal_count=65
shrinkage=0.05


Tree=66
num_leaves=2
num_cat=0
split_feature=5
split_gain=46970.5
threshold=4.6059500000000009
decision_type=2
left_child=-1
right_child=-2
leaf_value=-1.1475236330713545 1.5486307708422344
leaf_weight=35 30
leaf_count=35 30
internal_value=0
internal_weight=0
internal_count=65
shrinkage=0.05


Tree=67
num_leaves=2
num_cat=0
split_feature=5
split_gain=42390.9
threshold=4.6059500000000009
decision_type=2
left_child=-1
right_child=-2
leaf_value=-1.0901474423067909 1.4711991667747499
leaf_weight=35 30
leaf_count=35 30
internal_value=0
internal_weight=0
internal_count=65
shrinkage=0.05


Tree=68
num_leaves=2
num_cat=0
split_feature=2
split_gain=31824.2
threshold=28.850000000000005
decision_type=2
left_child=-1
right_child=-2
leaf_value=-0.90556691454516525 1.3200753031105832
leaf_weight=36 29
leaf_count=36 29
internal_value=0
internal_weight=0
internal_count=65
shrinkage=0.05


Tree=69
num_leaves=2
num_cat=0
split_feature=5
split_gain=35365.2
threshold=4.6059500000000009
decision_type=2
left_child=-1
right_child=-2
leaf_value=-0.99672070852347783 1.3427637306849163
leaf_weight=35 30
leaf_count=35 30
internal_value=0
internal_weight=0
internal_count=65
shrinkage=0.05


Tree=70
num_leaves=3
num_cat=0
split_feature=3 5
split_gain=32013.4 3204.31
threshold=36.850000000000009 3.3736500000000005
decision_type=2 2
left_child=1 -1
right_child=-2 -3
leaf_value=-1.1551138091087343 1.6850758223306563 -0.29818814781804881
leaf_weight=20 21 24
leaf_count=20 21 24
internal_value=0 -0.6877
internal_weight=0 44
internal_count=65 44
shrinkage=0.05


Tree=71
num_leaves=2
num_cat=0
split_feature=4
split_gain=32994.2
threshold=7.6004000000000014
decision_type=2
left_child=-1
right_child=-2
leaf_value=-1.2200086020997594 1.0549095910948676
leaf_weight=28 37
leaf_count=28 37
internal_value=0
internal_weight=0
internal_count=65
shrinkage=0.05


Tree=72
num_leaves=2
num_cat=0
split_feature=5
split_gain=27175.7
threshold=4.6059500000000009
decision_type=2
left_child=-1
right_child=-2
leaf_value=-0.87532355001994544 1.1754721307754517
leaf_weight=35 30
leaf_count=35 30
internal_value=0
internal_weight=0
internal_count=65
shrinkage=0.05


Tree=73
num_leaves=2
num_cat=0
split_feature=4
split_gain=27701
threshold=7.6004000000000014
decision_type=2
left_child=-1
right_child=-2
leaf_value=-1.118904134152191 0.96556117365489136
leaf_weight=28 37
leaf_count=28 37
internal_value=0
internal_weight=0
internal_count=65
shrinkage=0.05


Tree=74
num_leaves=3
num_cat=0
split_feature=3 5
split_gain=24045.7 1883.1
threshold=36.850000000000009 3.3736500000000005
decision_type=2 2
left_child=1 -1
right_child=-2 -3
leaf_value=-0.95844321981072422 1.456287431716919 -0.30152255060772104
leaf_weight=20 21 24
leaf_count=20 21 24
internal_value=0 -0.600123
internal_weight=0 44
internal_count=65 44
shrinkage=0.05


Tree=75
num_leaves=2
num_cat=0
split_feature=2
split_gain=16340.6
threshold=28.850000000000005
decision_type=2
left_child=-1
right_child=-2
leaf_value=-0.65048901175873153 0.94432420566164221
leaf_weight=36 29
leaf_count=36 29
internal_value=0
internal_weight=0
internal_count=65
shrinkage=0.05


Tree=76
num_leaves=2
num_cat=0
split_feature=5
split_gain=19322.4
threshold=4.6059500000000009
decision_type=2
left_child=-1
right_child=-2
leaf_value=-0.74013264383588517 0.98913500333825743
leaf_weight=35 30
leaf_count=35 30
internal_value=0
internal_weight=0
internal_count=65
shrinkage=0.05


Tree=77
num_leaves=3
num_cat=0
split_feature=3 2
split_gain=18952 1255.89
threshold=36.850000000000009 20.750000000000004
decision_type=2 2
left_child=1 -1
right_child=-2 -3
leaf_value=-0.82735824048519135 1.2909173170725505 -0.29088176203270755
leaf_weight=20 21 24
leaf_count=20 21 24
internal_value=0 -0.534735
internal_weight=0 44
internal_count=65 44
shrinkage=0.05


Tree=78
num_leaves=3
num_cat=0
split_feature=3 1
split_gain=17104.2 1133.44
threshold=36.850000000000009 19.050000000000004
decision_type=2 2
left_child=1 -1
right_child=-2 -3
leaf_value=-0.78599030911922463 1.2263715411935534 -0.27633767115573088
leaf_weight=20 21 24
leaf_count=20 21 24
internal_value=0 -0.507998
internal_weight=0 44
internal_count=65 44
shrinkage=0.05


Tree=79
num_leaves=2
num_cat=0
split_feature=4
split_gain=33732.8
threshold=9.928250000000002
decision_type=2
left_child=-1
right_child=-2
leaf_value=0.97974294546322938 -1.3453145375976769
leaf_weight=39 26
leaf_count=39 26
internal_value=0
internal_weight=0
internal_count=65
shrinkage=0.05


Tree=80
num_leaves=3
num_cat=0
split_feature=3 1
split_gain=7350.74 8981.77
threshold=35.600000000000009 20.200000000000003
decision_type=2 2
left_child=1 -1
right_child=-2 -3
leaf_value=0.027249484658241275 0.43813987195491794 -1.4532842488515945
leaf_weight=20 20 21
leaf_count=20 20 21
internal_value=0 -0.731073
internal_weight=0 41
internal_count=61 41
shrinkage=0.05


Tree=81
num_leaves=2
num_cat=0
split_feature=4
split_gain=17088.3
threshold=8.4649000000000019
decision_type=2
left_child=-1
right_child=-2
leaf_value=-1.0277247389157613 0.67389879798889163
leaf_weight=36 25
leaf_count=36 25
internal_value=0
internal_weight=0
internal_count=61
shrinkage=0.05


Tree=82
num_leaves=3
num_cat=0
split_feature=3 1
split_gain=5985.18 8289.2
threshold=35.600000000000009 20.200000000000003
decision_type=2 2
left_child=1 -1
right_child=-2 -3
leaf_value=0.068765159845352183 0.39530026674270635 -1.3535427042416164
leaf_weight=20 20 21
leaf_count=20 20 21
internal_value=0 -0.659734
internal_weight=0 41
internal_count=61 41
shrinkage=0.05


Tree=83
num_leaves=2
num_cat=0
split_feature=4
split_gain=14999.6
threshold=8.4649000000000019
decision_type=2
left_child=-1
right_child=-2
leaf_value=-0.95150592840380144 0.64273105812072762
leaf_weight=36 25
leaf_count=36 25
internal_value=0
internal_weight=0
internal_count=61
shrinkage=0.05


Tree=84
num_leaves=2
num_cat=0
split_feature=1
split_gain=4856.91
threshold=21.350000000000005
decision_type=2
left_child=-1
right_child=-2
leaf_value=0.2902495394582334 -0.6303257473205266
leaf_weight=23 38
leaf_count=23 38
internal_value=0
internal_weight=0
internal_count=61
shrinkage=0.05


Tree=85
num_leaves=2
num_cat=0
split_feature=2
split_gain=4383.36
threshold=22.750000000000004
decision_type=2
left_child=-1
right_child=-2
leaf_value=0.27573705963466483 -0.59880946705019789
leaf_weight=23 38
leaf_count=23 38
internal_value=0
internal_weight=0
internal_count=61
shrinkage=0.05


Tree=86
num_leaves=3
num_cat=0
split_feature=3 2
split_gain=5381.7 6808.84
threshold=35.600000000000009 22.250000000000004
decision_type=2 2
left_child=1 -1
right_child=-2 -3
leaf_value=0.076631692647933958 0.41681220889091491 -1.2124306064276469
leaf_weight=20 20 21
leaf_count=20 20 21
internal_value=0 -0.58362
internal_weight=0 41
internal_count=61 41
shrinkage=0.05


Tree=87
num_leaves=2
num_cat=0
split_feature=1
split_gain=3831.55
threshold=21.350000000000005
decision_type=2
left_child=-1
right_child=-2
leaf_value=0.26652555569358499 -0.5511222014301701
leaf_weight=23 38
leaf_count=23 38
internal_value=0
internal_weight=0
internal_count=61
shrinkage=0.05


Tree=88
num_leaves=2
num_cat=0
split_feature=5
split_gain=3761.77
threshold=4.1811000000000016
decision_type=2
left_child=-1
right_child=-2
leaf_value=-0.61694858458734325 0.16844916780789695
leaf_weight=31 30
leaf_count=31 30
internal_value=0
internal_weight=0
internal_count=61
shrinkage=0.05


Tree=89
num_leaves=2
num_cat=0
split_feature=4
split_gain=13819.7
threshold=8.4649000000000019
decision_type=2
left_child=-1
right_child=-2
leaf_value=-0.8463054623868731 0.68394648265838631
leaf_weight=36 25
leaf_count=36 25
internal_value=0
internal_weight=0
internal_count=61
shrinkage=0.05


Tree=90
num_leaves=3
num_cat=0
split_feature=3 1
split_gain=4321.29 6142.34
threshold=35.600000000000009 20.200000000000003
decision_type=2 2
left_child=1 -1
right_child=-2 -3
leaf_value=0.12498525142669679 0.39434839010238654 -1.0993612811678932
leaf_weight=20 20 21
leaf_count=20 20 21
internal_value=0 -0.502119
internal_weight=0 41
internal_count=61 41
shrinkage=0.05


Tree=91
num_leaves=2
num_cat=0
split_feature=4
split_gain=12150.9
threshold=8.4649000000000019
decision_type=2
left_child=-1
right_child=-2
leaf_value=-0.78585454424222312 0.64903377342224122
leaf_weight=36 25
leaf_count=36 25
internal_value=0
internal_weight=0
internal_count=61
shrinkage=0.05


Tree=92
num_leaves=2
num_cat=0
split_feature=1
split_gain=4344.75
threshold=21.350000000000005
decision_type=2
left_child=-1
right_child=-2
leaf_value=0.3544983988222869 -0.51618784854286603
leaf_weight=23 38
leaf_count=23 38
internal_value=0
internal_weight=0
internal_count=61
shrinkage=0.05


Tree=93
num_leaves=2
num_cat=0
split_feature=2
split_gain=3921.14
threshold=22.750000000000004
decision_type=2
left_child=-1
right_child=-2
leaf_value=0.33677347742992902 -0.49037847895371289
leaf_weight=23 38
leaf_count=23 38
internal_value=0
internal_weight=0
internal_count=61
shrinkage=0.05


Tree=94
num_leaves=3
num_cat=0
split_feature=3 2
split_gain=3905.81 4991.36
threshold=35.600000000000009 22.250000000000004
decision_type=2 2
left_child=1 -1
right_child=-2 -3
leaf_value=0.11629068970680237 0.4032690513134003 -0.98739799431392139
leaf_weight=20 20 21
leaf_count=20 20 21
internal_value=0 -0.449013
internal_weight=0 41
internal_count=61 41
shrinkage=0.05


Tree=95
num_leaves=3
num_cat=0
split_feature=3 1
split_gain=3524.99 4504.7
threshold=35.600000000000009 20.200000000000003
decision_type=2 2
left_child=1 -1
right_child=-2 -3
leaf_value=0.11047614812850953 0.38310562372207646 -0.93802810964130223
leaf_weight=20 20 21
leaf_count=20 20 21
internal_value=0 -0.426563
internal_weight=0 41
internal_count=61 41
shrinkage=0.05


Tree=96
num_leaves=2
num_cat=0
split_feature=4
split_gain=11079.5
threshold=8.4649000000000019
decision_type=2
left_child=-1
right_child=-2
leaf_value=-0.71458649436632804 0.6555802536010743
leaf_weight=36 25
leaf_count=36 25
internal_value=0
internal_weight=0
internal_count=61
shrinkage=0.05


Tree=97
num_leaves=2
num_cat=0
split_feature=1
split_gain=3659.62
threshold=21.350000000000005
decision_type=2
left_child=-1
right_child=-2
leaf_value=0.35240456643311879 -0.44668768707074619
leaf_weight=23 38
leaf_count=23 38
internal_value=0
internal_weight=0
internal_count=61
shrinkage=0.05


Tree=98
num_leaves=2
num_cat=0
split_feature=3
split_gain=3302.8
threshold=25.150000000000002
decision_type=2
left_child=-1
right_child=-2
leaf_value=0.33478436988332999 -0.42435327705584075
leaf_weight=23 38
leaf_count=23 38
internal_value=0
internal_weight=0
internal_count=61
shrinkage=0.05


Tree=99
num_leaves=2
num_cat=0
split_feature=1
split_gain=2980.78
threshold=21.350000000000005
decision_type=2
left_child=-1
right_child=-2
leaf_value=0.31804514967876935 -0.40313558986312464
leaf_weight=23 38
leaf_count=23 38
internal_value=0
internal_weight=0
internal_count=61
shrinkage=0.05


Tree=100
num_leaves=3
num_cat=0
split_feature=3 1
split_gain=3221.54 3624.85
threshold=39.100000000000009 20.750000000000004
decision_type=2 2
left_child=1 -1
right_child=-2 -3
leaf_value=0.031924714731133501 0.34819055274128918 -0.85577505982440449
leaf_weight=23 20 23
leaf_count=23 20 23
internal_value=0 -0.411925
internal_weight=0 46
internal_count=66 46
shrinkage=0.05


Tree=101
num_leaves=2
num_cat=0
split_feature=4
split_gain=18216.5
threshold=9.928250000000002
decision_type=2
left_child=-1
right_child=-2
leaf_value=0.54053768452845119 -1.1402122496494227
leaf_weight=38 28
leaf_count=38 28
internal_value=0
internal_weight=0
internal_count=66
shrinkage=0.05


Tree=102
num_leaves=2
num_cat=0
split_feature=5
split_gain=11749.8
threshold=4.1811000000000016
decision_type=2
left_child=-1
right_child=-2
leaf_value=-0.87275326482711302 0.46397477324519842
leaf_weight=31 35
leaf_count=31 35
internal_value=0
internal_weight=0
internal_count=66
shrinkage=0.05


Tree=103
num_leaves=2
num_cat=0
split_feature=5
split_gain=10604.2
threshold=4.1811000000000016
decision_type=2
left_child=-1
right_child=-2
leaf_value=-0.82911561035340842 0.44077602177858355
leaf_weight=31 35
leaf_count=31 35
internal_value=0
internal_weight=0
internal_count=66
shrinkage=0.05


Tree=104
num_leaves=2
num_cat=0
split_feature=4
split_gain=18173.8
threshold=9.928250000000002
decision_type=2
left_child=-1
right_child=-2
leaf_value=0.56430658149091817 -1.1144751270966871
leaf_weight=38 28
leaf_count=38 28
internal_value=0
internal_weight=0
internal_count=66
shrinkage=0.05


Tree=105
num_leaves=2
num_cat=0
split_feature=5
split_gain=10410.4
threshold=4.1811000000000016
decision_type=2
left_child=-1
right_child=-2
leaf_value=-0.80775203704833987 0.45047839054039546
leaf_weight=31 35
leaf_count=31 35
internal_value=0
internal_weight=0
internal_count=66
shrinkage=0.05


Tree=106
num_leaves=3
num_cat=0
split_feature=3 1
split_gain=2703.36 3644.51
threshold=39.100000000000009 20.750000000000004
decision_type=2 2
left_child=1 -1
right_child=-2 -3
leaf_value=0.10056728681792385 0.35182069504226093 -0.78953711675561
leaf_weight=23 20 23
leaf_count=23 20 23
internal_value=0 -0.344485
internal_weight=0 46
internal_count=66 46
shrinkage=0.05


Tree=107
num_leaves=2
num_cat=0
split_feature=4
split_gain=17219.8
threshold=9.928250000000002
decision_type=2
left_child=-1
right_child=-2
leaf_value=0.56645557252984302 -1.0676681610090393
leaf_weight=38 28
leaf_count=38 28
internal_value=0
internal_weight=0
internal_count=66
shrinkage=0.05


Tree=108
num_leaves=2
num_cat=0
split_feature=5
split_gain=10268.9
threshold=4.1811000000000016
decision_type=2
left_child=-1
right_child=-2
leaf_value=-0.78316419547603977 0.46649039004530224
leaf_weight=31 35
leaf_count=31 35
internal_value=0
internal_weight=0
internal_count=66
shrinkage=0.05


Tree=109
num_leaves=3
num_cat=0
split_feature=1 1
split_gain=1334.58 842.629
threshold=29.050000000000001 20.200000000000003
decision_type=2 2
left_child=1 -1
right_child=-2 -3
leaf_value=-0.17114477410912515 -0.4023785644769669 0.28233237947736467
leaf_weight=20 25 21
leaf_count=20 25 21
internal_value=0 0.061124
internal_weight=0 41
internal_count=66 41
shrinkage=0.05


Tree=110
num_leaves=2
num_cat=0
split_feature=5
split_gain=9389.01
threshold=4.1811000000000016
decision_type=2
left_child=-1
right_child=-2
leaf_value=-0.74238992852549401 0.45252506077289589
leaf_weight=31 35
leaf_count=31 35
internal_value=0
internal_weight=0
internal_count=66
shrinkage=0.05


Tree=111
num_leaves=2
num_cat=0
split_feature=4
split_gain=16907.6
threshold=9.928250000000002
decision_type=2
left_child=-1
right_child=-2
leaf_value=0.58366588357051741 -1.0355795523417848
leaf_weight=38 28
leaf_count=38 28
internal_value=0
internal_weight=0
internal_count=66
shrinkage=0.05


Tree=112
num_leaves=2
num_cat=0
split_feature=4
split_gain=15259.1
threshold=9.928250000000002
decision_type=2
left_child=-1
right_child=-2
leaf_value=0.55448257166304094 -0.9838005753500122
leaf_weight=38 28
leaf_count=38 28
internal_value=0
internal_weight=0
internal_count=66
shrinkage=0.05


Tree=113
num_leaves=2
num_cat=0
split_feature=4
split_gain=13771.4
threshold=9.928250000000002
decision_type=2
left_child=-1
right_child=-2
leaf_value=0.52675839709608174 -0.93461054435798108
leaf_weight=38 28
leaf_count=38 28
internal_value=0
internal_weight=0
internal_count=66
shrinkage=0.05


Tree=114
num_leaves=3
num_cat=0
split_feature=3 1
split_gain=3367.14 2797.06
threshold=39.100000000000009 20.750000000000004
decision_type=2 2
left_child=1 -1
right_child=-2 -3
leaf_value=0.065848278221876722 0.453062065243721 -0.71393097794574245
leaf_weight=23 20 23
leaf_count=23 20 23
internal_value=0 -0.324041
internal_weight=0 46
internal_count=66 46
shrinkage=0.05


Tree=115
num_leaves=2
num_cat=0
split_feature=4
split_gain=12493.2
threshold=9.928250000000002
decision_type=2
left_child=-1
right_child=-2
leaf_value=0.50637642113785997 -0.88552612044981549
leaf_weight=38 28
leaf_count=38 28
internal_value=0
internal_weight=0
internal_count=66
shrinkage=0.05


Tree=116
num_leaves=2
num_cat=0
split_feature=4
split_gain=11275.2
threshold=9.928250000000002
decision_type=2
left_child=-1
right_child=-2
leaf_value=0.48105756232613017 -0.84124986508062904
leaf_weight=38 28
leaf_count=38 28
internal_value=0
internal_weight=0
internal_count=66
shrinkage=0.05


Tree=117
num_leaves=2
num_cat=0
split_feature=1
split_gain=2219.51
threshold=23.750000000000004
decision_type=2
left_child=-1
right_child=-2
leaf_value=-0.38401693259516073 0.19695598053080696
leaf_weight=31 35
leaf_count=31 35
internal_value=0
internal_weight=0
internal_count=66
shrinkage=0.05


Tree=118
num_leaves=2
num_cat=0
split_feature=5
split_gain=11692
threshold=4.1811000000000016
decision_type=2
left_child=-1
right_child=-2
leaf_value=-0.77925389735929429 0.55418168455362327
leaf_weight=31 35
leaf_count=31 35
internal_value=0
internal_weight=0
internal_count=66
shrinkage=0.05


Tree=119
num_leaves=2
num_cat=0
split_feature=4
split_gain=11175.8
threshold=9.928250000000002
decision_type=2
left_child=-1
right_child=-2
leaf_value=0.48997865852556732 -0.82648841802563
leaf_weight=38 28
leaf_count=38 28
internal_value=0
internal_weight=0
internal_count=66
shrinkage=0.05


Tree=120
num_leaves=2
num_cat=0
split_feature=4
split_gain=44092.4
threshold=8.8274000000000008
decision_type=2
left_child=-1
right_child=-2
leaf_value=-0.36031609845883922 2.3373030165742552
leaf_weight=33 28
leaf_count=33 28
internal_value=0
internal_weight=0
internal_count=61
shrinkage=0.05


Tree=121
num_leaves=2
num_cat=0
split_feature=4
split_gain=39793.4
threshold=8.8274000000000008
decision_type=2
left_child=-1
right_child=-2
leaf_value=-0.34230030811194223 2.2204378592116494
leaf_weight=33 28
leaf_count=33 28
internal_value=0
internal_weight=0
internal_count=61
shrinkage=0.05


Tree=122
num_leaves=3
num_cat=0
split_feature=3 3
split_gain=73837.6 1662.82
threshold=36.850000000000009 24.150000000000002
decision_type=2 2
left_child=1 -1
right_child=-2 -3
leaf_value=-0.1118912384623573 3.2830333077907561 -0.74892087459564216
leaf_weight=21 20 20
leaf_count=21 20 20
internal_value=0 -0.422637
internal_weight=0 41
internal_count=61 41
shrinkage=0.05


Tree=123
num_leaves=2
num_cat=0
split_feature=1
split_gain=24678.2
threshold=29.050000000000001
decision_type=2
left_child=-1
right_child=-2
leaf_value=-0.002617463393089099 2.0917266466400841
leaf_weight=39 22
leaf_count=39 22
internal_value=0
internal_weight=0
internal_count=61
shrinkage=0.05


Tree=124
num_leaves=2
num_cat=0
split_feature=4
split_gain=31637
threshold=8.8274000000000008
decision_type=2
left_child=-1
right_child=-2
leaf_value=-0.33379391612428611 1.9512610588754928
leaf_weight=33 28
leaf_count=33 28
internal_value=0
internal_weight=0
internal_count=61
shrinkage=0.05


Tree=125
num_leaves=2
num_cat=0
split_feature=4
split_gain=28552.4
threshold=8.8274000000000008
decision_type=2
left_child=-1
right_child=-2
leaf_value=-0.31710422869884608 1.8536980611937388
leaf_weight=33 28
leaf_count=33 28
internal_value=0
internal_weight=0
internal_count=61
shrinkage=0.05


Tree=126
num_leaves=3
num_cat=0
split_feature=3 3
split_gain=58243.4 1977.45
threshold=36.850000000000009 24.150000000000002
decision_type=2 2
left_child=1 -1
right_child=-2 -3
leaf_value=-0.094839272896448779 2.8574663066864012 -0.78952753067016612
leaf_weight=21 20 20
leaf_count=21 20 20
internal_value=0 -0.433712
internal_weight=0 41
internal_count=61 41
shrinkage=0.05


Tree=127
num_leaves=3
num_cat=0
split_feature=5 5
split_gain=19122.2 177.869
threshold=5.131800000000001 3.7032500000000006
decision_type=2 2
left_child=1 -1
right_child=-2 -3
leaf_value=-0.11191651403903963 1.8806039428710939 0.09643061615171887
leaf_weight=20 20 21
leaf_count=20 20 21
internal_value=0 -0.00520213
internal_weight=0 41
internal_count=61 41
shrinkage=0.05


Tree=128
num_leaves=3
num_cat=0
split_feature=5 5
split_gain=17257.8 160.527
threshold=5.131800000000001 3.7032500000000006
decision_type=2 2
left_child=1 -1
right_child=-2 -3
leaf_value=-0.10632068932056427 1.786573781967163 0.09160910788036529
leaf_weight=20 20 21
leaf_count=20 20 21
internal_value=0 -0.00494201
internal_weight=0 41
internal_count=61 41
shrinkage=0.05


Tree=129
num_leaves=3
num_cat=0
split_feature=5 5
split_gain=15575.2 144.875
threshold=5.131800000000001 3.7032500000000006
decision_type=2 2
left_child=1 -1
right_child=-2 -3
leaf_value=-0.10100465267896652 1.6972450160980224 0.087028636251177113
leaf_weight=20 20 21
leaf_count=20 20 21
internal_value=0 -0.00469492
internal_weight=0 41
internal_count=61 41
shrinkage=0.05


Tree=130
num_leaves=3
num_cat=0
split_feature=3 3
split_gain=46267.9 2238.66
threshold=36.850000000000009 24.150000000000002
decision_type=2 2
left_child=1 -1
right_child=-2 -3
leaf_value=-0.075550224383672093 2.4972653532028199 -0.81469810605049142
leaf_weight=21 20 20
leaf_count=21 20 20
internal_value=0 -0.43611
internal_weight=0 41
internal_count=61 41
shrinkage=0.05


Tree=131
num_leaves=2
num_cat=0
split_feature=4
split_gain=23564.5
threshold=9.928250000000002
decision_type=2
left_child=-1
right_child=-2
leaf_value=1.263920816387001 -0.76380184629689096
leaf_weight=38 23
leaf_count=38 23
internal_value=0
internal_weight=0
internal_count=61
shrinkage=0.05


Tree=132
num_leaves=2
num_cat=0
split_feature=1
split_gain=11281.9
threshold=29.050000000000001
decision_type=2
left_child=-1
right_child=-2
leaf_value=-0.036310272033397969 1.3797534422440965
leaf_weight=39 22
leaf_count=39 22
internal_value=0
internal_weight=0
internal_count=61
shrinkage=0.05


Tree=133
num_leaves=2
num_cat=0
split_feature=1
split_gain=10205.1
threshold=25.100000000000005
decision_type=2
left_child=-1
right_child=-2
leaf_value=-0.18551913499832154 1.1080880665779114
leaf_weight=31 30
leaf_count=31 30
internal_value=0
internal_weight=0
internal_count=61
shrinkage=0.05


Tree=134
num_leaves=3
num_cat=0
split_feature=3 3
split_gain=39978.1 2013.87
threshold=36.850000000000009 24.150000000000002
decision_type=2 2
left_child=1 -1
right_child=-2 -3
leaf_value=-0.12387727953138805 2.260853519439697 -0.82493382453918462
leaf_weight=21 20 20
leaf_count=21 20 20
internal_value=0 -0.465856
internal_weight=0 41
internal_count=61 41
shrinkage=0.05


Tree=135
num_leaves=2
num_cat=0
split_feature=1
split_gain=8062.45
threshold=25.100000000000005
decision_type=2
left_child=-1
right_child=-2
leaf_value=-0.15874192868509601 0.99107073227564502
leaf_weight=31 30
leaf_count=31 30
internal_value=0
internal_weight=0
internal_count=61
shrinkage=0.05


Tree=136
num_leaves=2
num_cat=0
split_feature=1
split_gain=7276.37
threshold=25.100000000000005
decision_type=2
left_child=-1
right_child=-2
leaf_value=-0.1508048511320545 0.94151729663213102
leaf_weight=31 30
leaf_count=31 30
internal_value=0
internal_weight=0
internal_count=61
shrinkage=0.05


Tree=137
num_leaves=2
num_cat=0
split_feature=1
split_gain=6603.19
threshold=29.050000000000001
decision_type=2
left_child=-1
right_child=-2
leaf_value=-0.023633383634762889 1.0597154964100231
leaf_weight=39 22
leaf_count=39 22
internal_value=0
internal_weight=0
internal_count=61
shrinkage=0.05


Tree=138
num_leaves=3
num_cat=0
split_feature=3 3
split_gain=32383.5 2168.5
threshold=36.850000000000009 24.150000000000002
decision_type=2 2
left_child=1 -1
right_child=-2 -3
leaf_value=-0.10102441594714212 1.9981954956054686 -0.82849825024604806
leaf_weight=21 20 20
leaf_count=21 20 20
internal_value=0 -0.45589
internal_weight=0 41
internal_count=61 41
shrinkage=0.05


Tree=139
num_leaves=2
num_cat=0
split_feature=5
split_gain=7634.07
threshold=4.1811000000000016
decision_type=2
left_child=-1
right_child=-2
leaf_value=-0.25627713943349906 0.86377664953470235
leaf_weight=29 32
leaf_count=29 32
internal_value=0
internal_weight=0
internal_count=61
shrinkage=0.05


Tree=140
num_leaves=2
num_cat=0
split_feature=4
split_gain=42055.8
threshold=9.928250000000002
decision_type=2
left_child=-1
right_child=-2
leaf_value=0.27504984969273211 -2.3783611396859801
leaf_weight=32 28
leaf_count=32 28
internal_value=0
internal_weight=0
internal_count=60
shrinkage=0.05


Tree=141
num_leaves=2
num_cat=0
split_feature=2
split_gain=33489.8
threshold=31.350000000000005
decision_type=2
left_child=-1
right_child=-2
leaf_value=0.15345403389497236 -2.220995366131818
leaf_weight=33 27
leaf_count=33 27
internal_value=0
internal_weight=0
internal_count=60
shrinkage=0.05


Tree=142
num_leaves=2
num_cat=0
split_feature=1
split_gain=30224.5
threshold=29.050000000000001
decision_type=2
left_child=-1
right_child=-2
leaf_value=0.14578134914239246 -2.1099456521923896
leaf_weight=33 27
leaf_count=33 27
internal_value=0
internal_weight=0
internal_count=60
shrinkage=0.05


Tree=143
num_leaves=2
num_cat=0
split_feature=1
split_gain=27277.6
threshold=29.050000000000001
decision_type=2
left_child=-1
right_child=-2
leaf_value=0.13849226742079765 -2.0044482957433774
leaf_weight=33 27
leaf_count=33 27
internal_value=0
internal_weight=0
internal_count=60
shrinkage=0.05


Tree=144
num_leaves=2
num_cat=0
split_feature=1
split_gain=24618.1
threshold=29.050000000000001
decision_type=2
left_child=-1
right_child=-2
leaf_value=0.131567672978748 -1.9042258902832314
leaf_weight=33 27
leaf_count=33 27
internal_value=0
internal_weight=0
internal_count=60
shrinkage=0.05


Tree=145
num_leaves=2
num_cat=0
split_feature=1
split_gain=22217.8
threshold=29.050000000000001
decision_type=2
left_child=-1
right_child=-2
leaf_value=0.12498926177169339 -1.8090146338498152
leaf_weight=33 27
leaf_count=33 27
internal_value=0
internal_weight=0
internal_count=60
shrinkage=0.05


Tree=146
num_leaves=2
num_cat=0
split_feature=2
split_gain=20051.6
threshold=31.350000000000005
decision_type=2
left_child=-1
right_child=-2
leaf_value=0.11873981013442532 -1.718563942556028
leaf_weight=33 27
leaf_count=33 27
internal_value=0
internal_weight=0
internal_count=60
shrinkage=0.05


Tree=147
num_leaves=2
num_cat=0
split_feature=4
split_gain=28048.1
threshold=9.928250000000002
decision_type=2
left_child=-1
right_child=-2
leaf_value=0.33858566060662271 -1.8283361588205613
leaf_weight=32 28
leaf_count=32 28
internal_value=0
internal_weight=0
internal_count=60
shrinkage=0.05


Tree=148
num_leaves=2
num_cat=0
split_feature=4
split_gain=25313.4
threshold=9.928250000000002
decision_type=2
left_child=-1
right_child=-2
leaf_value=0.32165639102458954 -1.7369193264416287
leaf_weight=32 28
leaf_count=32 28
internal_value=0
internal_weight=0
internal_count=60
shrinkage=0.05


Tree=149
num_leaves=2
num_cat=0
split_feature=4
split_gain=22845.3
threshold=9.928250000000002
decision_type=2
left_child=-1
right_child=-2
leaf_value=0.30557358935475354 -1.6500733613967897
leaf_weight=32 28
leaf_count=32 28
internal_value=0
internal_weight=0
internal_count=60
shrinkage=0.05


Tree=150
num_leaves=2
num_cat=0
split_feature=3
split_gain=6444.91
threshold=36.850000000000009
decision_type=2
left_child=-1
right_child=-2
leaf_value=-0.12355031686670639 -1.16930020405696
leaf_weight=34 26
leaf_count=34 26
internal_value=0
internal_weight=0
internal_count=60
shrinkage=0.05


Tree=151
num_leaves=2
num_cat=0
split_feature=1
split_gain=13728.6
threshold=29.050000000000001
decision_type=2
left_child=-1
right_child=-2
leaf_value=0.13624713854356246 -1.384020197833026
leaf_weight=33 27
leaf_count=33 27
internal_value=0
internal_weight=0
internal_count=60
shrinkage=0.05


Tree=152
num_leaves=2
num_cat=0
split_feature=1
split_gain=12390.1
threshold=29.050000000000001
decision_type=2
left_child=-1
right_child=-2
leaf_value=0.12943478931080213 -1.3148191619802405
leaf_weight=33 27
leaf_count=33 27
internal_value=0
internal_weight=0
internal_count=60
shrinkage=0.05


Tree=153
num_leaves=2
num_cat=0
split_feature=4
split_gain=18229.5
threshold=9.928250000000002
decision_type=2
left_child=-1
right_child=-2
leaf_value=0.32078463956713676 -1.4261585482529231
leaf_weight=32 28
leaf_count=32 28
internal_value=0
internal_weight=0
internal_count=60
shrinkage=0.05


Tree=154
num_leaves=2
num_cat=0
split_feature=1
split_gain=10391.2
threshold=29.050000000000001
decision_type=2
left_child=-1
right_child=-2
leaf_value=0.12545199683218292 -1.1971807868392379
leaf_weight=33 27
leaf_count=33 27
internal_value=0
internal_weight=0
internal_count=60
shrinkage=0.05


Tree=155
num_leaves=2
num_cat=0
split_feature=1
split_gain=9378.04
threshold=29.050000000000001
decision_type=2
left_child=-1
right_child=-2
leaf_value=0.11917939908576734 -1.1373217666590656
leaf_weight=33 27
leaf_count=33 27
internal_value=0
internal_weight=0
internal_count=60
shrinkage=0.05


Tree=156
num_leaves=2
num_cat=0
split_feature=1
split_gain=8463.68
threshold=29.050000000000001
decision_type=2
left_child=-1
right_child=-2
leaf_value=0.1132204532623291 -1.0804555884114018
leaf_weight=33 27
leaf_count=33 27
internal_value=0
internal_weight=0
internal_count=60
shrinkage=0.05


Tree=157
num_leaves=2
num_cat=0
split_feature=1
split_gain=7638.47
threshold=29.050000000000001
decision_type=2
left_child=-1
right_child=-2
leaf_value=0.10755942987673212 -1.0264328358349977
leaf_weight=33 27
leaf_count=33 27
internal_value=0
internal_weight=0
internal_count=60
shrinkage=0.05


Tree=158
num_leaves=2
num_cat=0
split_feature=4
split_gain=13829.7
threshold=9.928250000000002
decision_type=2
left_child=-1
right_child=-2
leaf_value=0.32747609168291092 -1.1941160710794587
leaf_weight=32 28
leaf_count=32 28
internal_value=0
internal_weight=0
internal_count=60
shrinkage=0.05


Tree=159
num_leaves=2
num_cat=0
split_feature=1
split_gain=6353.95
threshold=29.050000000000001
decision_type=2
left_child=-1
right_child=-2
leaf_value=0.10194573799769086 -0.93231201420227683
leaf_weight=33 27
leaf_count=33 27
internal_value=0
internal_weight=0
internal_count=60
shrinkage=0.05


Tree=160
num_leaves=3
num_cat=0
split_feature=5 5
split_gain=14595 3464.89
threshold=4.6059500000000009 3.6474000000000006
decision_type=2 2
left_child=1 -1
right_child=-2 -3
leaf_value=0.08335515260696412 1.1454837012749453 -0.81454543996424911
leaf_weight=22 26 21
leaf_count=22 26 21
internal_value=0 -0.355154
internal_weight=0 43
internal_count=69 43
shrinkage=0.05


Tree=161
num_leaves=3
num_cat=0
split_feature=1 1
split_gain=4696.01 1162.05
threshold=26.850000000000005 20.750000000000004
decision_type=2 2
left_child=1 -1
right_child=-2 -3
leaf_value=0.13622414767742158 0.76460883797456825 -0.37307622801689877
leaf_weight=24 24 21
leaf_count=24 24 21
internal_value=0 -0.101449
internal_weight=0 45
internal_count=69 45
shrinkage=0.05


Tree=162
num_leaves=3
num_cat=0
split_feature=3 3
split_gain=16675.6 9972.98
threshold=35.600000000000009 25.650000000000002
decision_type=2 2
left_child=1 -1
right_child=-2 -3
leaf_value=0.28477928553308762 1.3649590058695704 -1.1770919683575631
leaf_weight=28 21 20
leaf_count=28 21 20
internal_value=0 -0.324334
internal_weight=0 48
internal_count=69 48
shrinkage=0.05


Tree=163
num_leaves=3
num_cat=0
split_feature=1 1
split_gain=3587.98 807.923
threshold=26.850000000000005 20.750000000000004
decision_type=2 2
left_child=1 -1
right_child=-2 -3
leaf_value=0.11517398556073506 0.67401821439464893 -0.30949041162218371
leaf_weight=24 24 21
leaf_count=24 24 21
internal_value=0 -0.0830027
internal_weight=0 45
internal_count=69 45
shrinkage=0.05


Tree=164
num_leaves=3
num_cat=0
split_feature=3 1
split_gain=14391.5 8860.87
threshold=35.600000000000009 22.050000000000004
decision_type=2 2
left_child=1 -1
right_child=-2 -3
leaf_value=0.2678149542638234 1.2630102061090016 -1.1101391792297364
leaf_weight=28 21 20
leaf_count=28 21 20
internal_value=0 -0.306333
internal_weight=0 48
internal_count=69 48
shrinkage=0.05


Tree=165
num_leaves=2
num_cat=0
split_feature=4
split_gain=31723.2
threshold=8.4649000000000019
decision_type=2
left_child=-1
right_child=-2
leaf_value=-0.77756219338148069 1.3851070075482133
leaf_weight=39 30
leaf_count=39 30
internal_value=0
internal_weight=0
internal_count=69
shrinkage=0.05


Tree=166
num_leaves=3
num_cat=0
split_feature=3 3
split_gain=11993.2 8524.38
threshold=35.600000000000009 25.650000000000002
decision_type=2 2
left_child=1 -1
right_child=-2 -3
leaf_value=0.28171658090182711 1.1512011198770433 -1.0698207959532737
leaf_weight=28 21 20
leaf_count=28 21 20
internal_value=0 -0.281424
internal_weight=0 48
internal_count=69 48
shrinkage=0.05


Tree=167
num_leaves=2
num_cat=0
split_feature=4
split_gain=28214.3
threshold=8.4649000000000019
decision_type=2
left_child=-1
right_child=-2
leaf_value=-0.73990139349912987 1.2996561257541179
leaf_weight=39 30
leaf_count=39 30
internal_value=0
internal_weight=0
internal_count=69
shrinkage=0.05


Tree=168
num_leaves=2
num_cat=0
split_feature=4
split_gain=25463.4
threshold=8.4649000000000019
decision_type=2
left_child=-1
right_child=-2
leaf_value=-0.70290634112480366 1.2346732294559479
leaf_weight=39 30
leaf_count=39 30
internal_value=0
internal_weight=0
internal_count=69
shrinkage=0.05


Tree=169
num_leaves=3
num_cat=0
split_feature=3 1
split_gain=9187.08 8657.93
threshold=35.600000000000009 22.050000000000004
decision_type=2 2
left_child=1 -1
right_child=-2 -3
leaf_value=0.31846504466874259 1.004801995413644 -1.0436178639531135
leaf_weight=28 21 20
leaf_count=28 21 20
internal_value=0 -0.24907
internal_weight=0 48
internal_count=69 48
shrinkage=0.05


Tree=170
num_leaves=3
num_cat=0
split_feature=3 1
split_gain=8291.34 7813.78
threshold=35.600000000000009 22.050000000000004
decision_type=2 2
left_child=1 -1
right_child=-2 -3
leaf_value=0.30254178770950868 0.95456195104689834 -0.99143693611025818
leaf_weight=28 21 20
leaf_count=28 21 20
internal_value=0 -0.236616
internal_weight=0 48
internal_count=69 48
shrinkage=0.05


Tree=171
num_leaves=3
num_cat=0
split_feature=4 1
split_gain=22791.8 14635.8
threshold=10.778000000000004 22.050000000000004
decision_type=2 2
left_child=1 -1
right_child=-2 -3
leaf_value=0.28741470915930617 1.5420091943442822 -1.4587606951594354
leaf_weight=28 20 21
leaf_count=28 20 21
internal_value=0 -0.460946
internal_weight=0 49
internal_count=69 49
shrinkage=0.05


Tree=172
num_leaves=3
num_cat=0
split_feature=5 5
split_gain=6448.88 1765.22
threshold=4.6059500000000009 3.6474000000000006
decision_type=2 2
left_child=1 -1
right_child=-2 -3
leaf_value=0.050759689374403519 0.73527432955228367 -0.59012924659819832
leaf_weight=22 26 21
leaf_count=22 26 21
internal_value=0 -0.262233
internal_weight=0 43
internal_count=69 43
shrinkage=0.05


Tree=173
num_leaves=2
num_cat=0
split_feature=4
split_gain=20388.2
threshold=8.4649000000000019
decision_type=2
left_child=-1
right_child=-2
leaf_value=-0.64585442023399553 1.0879132044315338
leaf_weight=39 30
leaf_count=39 30
internal_value=0
internal_weight=0
internal_count=69
shrinkage=0.05


Tree=174
num_leaves=3
num_cat=0
split_feature=3 3
split_gain=6121.46 6972.87
threshold=35.600000000000009 25.650000000000002
decision_type=2 2
left_child=1 -1
right_child=-2 -3
leaf_value=0.30037732039179121 0.81456627164568229 -0.92199167668819426
leaf_weight=28 21 20
leaf_count=28 21 20
internal_value=0 -0.208943
internal_weight=0 48
internal_count=69 48
shrinkage=0.05


Tree=175
num_leaves=2
num_cat=0
split_feature=4
split_gain=18239.1
threshold=8.4649000000000019
decision_type=2
left_child=-1
right_child=-2
leaf_value=-0.61554604891018994 1.0243028966585797
leaf_weight=39 30
leaf_count=39 30
internal_value=0
internal_weight=0
internal_count=69
shrinkage=0.05


Tree=176
num_leaves=3
num_cat=0
split_feature=4 1
split_gain=16911.5 13355.8
threshold=10.778000000000004 22.050000000000004
decision_type=2 2
left_child=1 -1
right_child=-2 -3
leaf_value=0.30735086458069938 1.3177948927879335 -1.3607176882880074
leaf_weight=28 20 21
leaf_count=28 20 21
internal_value=0 -0.407536
internal_weight=0 49
internal_count=69 49
shrinkage=0.05


Tree=177
num_leaves=3
num_cat=0
split_feature=5 2
split_gain=4021.41 1719.7
threshold=4.6059500000000009 22.250000000000004
decision_type=2 2
left_child=1 -1
right_child=-2 -3
leaf_value=0.085974487532740063 0.57882001399993899 -0.54797081112861634
leaf_weight=23 26 20
leaf_count=23 26 20
internal_value=0 -0.208884
internal_weight=0 43
internal_count=69 43
shrinkage=0.05


Tree=178
num_leaves=2
num_cat=0
split_feature=4
split_gain=15016.1
threshold=8.4649000000000019
decision_type=2
left_child=-1
right_child=-2
leaf_value=-0.56338687187586078 0.92453456242879239
leaf_weight=39 30
leaf_count=39 30
internal_value=0
internal_weight=0
internal_count=69
shrinkage=0.05


Tree=179
num_leaves=3
num_cat=0
split_feature=4 3
split_gain=13775.9 12281.9
threshold=10.778000000000004 25.650000000000002
decision_type=2 2
left_child=1 -1
right_child=-2 -3
leaf_value=0.31354316387857711 1.1851882719993592 -1.2860579956145515
leaf_weight=28 20 21
leaf_count=28 20 21
internal_value=0 -0.372
internal_weight=0 49
internal_count=69 49
shrinkage=0.05


Tree=180
num_leaves=3
num_cat=0
split_feature=1 4
split_gain=79966.5 201.98
threshold=29.950000000000003 6.7129500000000011
decision_type=2 2
left_child=1 -1
right_child=-2 -3
leaf_value=0.25115054607391357 -3.1798591687129094 0.47317024873835706
leaf_weight=20 26 21
leaf_count=20 26 21
internal_value=0 0.364868
internal_weight=0 41
internal_count=67 41
shrinkage=0.05


Tree=181
num_leaves=3
num_cat=0
split_feature=2 4
split_gain=72169.8 182.287
threshold=32.500000000000007 6.7129500000000011
decision_type=2 2
left_child=1 -1
right_child=-2 -3
leaf_value=0.23859299540519718 -3.0208661629603459 0.4495117506810597
leaf_weight=20 26 21
leaf_count=20 26 21
internal_value=0 0.346625
internal_weight=0 41
internal_count=67 41
shrinkage=0.05


Tree=182
num_leaves=3
num_cat=0
split_feature=2 5
split_gain=65133.2 155.911
threshold=32.500000000000007 3.7772000000000001
decision_type=2 2
left_child=1 -1
right_child=-2 -3
leaf_value=0.22938274860382082 -2.8698228414242086 0.42444624304771428
leaf_weight=20 26 21
leaf_count=20 26 21
internal_value=0 0.329293
internal_weight=0 41
internal_count=67 41
shrinkage=0.05


Tree=183
num_leaves=3
num_cat=0
split_feature=1 5
split_gain=58782.7 140.71
threshold=29.950000000000003 3.7772000000000001
decision_type=2 2
left_child=1 -1
right_child=-2 -3
leaf_value=0.21791360139846805 -2.7263317768390363 0.40322390993436175
leaf_weight=20 26 21
leaf_count=20 26 21
internal_value=0 0.312829
internal_weight=0 41
internal_count=67 41
shrinkage=0.05


Tree=184
num_leaves=3
num_cat=0
split_feature=1 5
split_gain=53051.4 126.991
threshold=29.950000000000003 3.7772000000000001
decision_type=2 2
left_child=1 -1
right_child=-2 -3
leaf_value=0.20701794147491459 -2.5900151546184835 0.38306274470828833
leaf_weight=20 26 21
leaf_count=20 26 21
internal_value=0 0.297187
internal_weight=0 41
internal_count=67 41
shrinkage=0.05


Tree=185
num_leaves=3
num_cat=0
split_feature=1 1
split_gain=47878.9 109.77
threshold=29.950000000000003 22.050000000000004
decision_type=2 2
left_child=1 -1
right_child=-2 -3
leaf_value=0.36216880310149424 -2.4605144326503461 0.19849486887454987
leaf_weight=21 26 20
leaf_count=21 26 20
internal_value=0 0.282328
internal_weight=0 41
internal_count=67 41
shrinkage=0.05


Tree=186
num_leaves=3
num_cat=0
split_feature=2 5
split_gain=43210.7 124.397
threshold=32.500000000000007 3.7772000000000001
decision_type=2 2
left_child=1 -1
right_child=-2 -3
leaf_value=0.17896779060363771 -2.3374886659475473 0.35320545207886472
leaf_weight=20 26 21
leaf_count=20 26 21
internal_value=0 0.268211
internal_weight=0 41
internal_count=67 41
shrinkage=0.05


Tree=187
num_leaves=3
num_cat=0
split_feature=1 5
split_gain=38997.7 112.268
threshold=29.950000000000003 3.7772000000000001
decision_type=2 2
left_child=1 -1
right_child=-2 -3
leaf_value=0.17001939594745638 -2.220614204498438 0.33554520096097673
leaf_weight=20 26 21
leaf_count=20 26 21
internal_value=0 0.254801
internal_weight=0 41
internal_count=67 41
shrinkage=0.05


Tree=188
num_leaves=3
num_cat=0
split_feature=1 1
split_gain=35195.4 118.435
threshold=29.950000000000003 22.050000000000004
decision_type=2 2
left_child=1 -1
right_child=-2 -3
leaf_value=0.32499306996663413 -2.1095835441580184 0.15498200178146362
leaf_weight=21 26 20
leaf_count=21 26 20
internal_value=0 0.242061
internal_weight=0 41
internal_count=67 41
shrinkage=0.05


Tree=189
num_leaves=2
num_cat=0
split_feature=4
split_gain=41242.4
threshold=9.928250000000002
decision_type=2
left_child=-1
right_child=-2
leaf_value=0.38220118924975399 -2.1469069931242202
leaf_weight=40 27
leaf_count=40 27
internal_value=0
internal_weight=0
internal_count=67
shrinkage=0.05


Tree=190
num_leaves=3
num_cat=0
split_feature=2 5
split_gain=30306.8 206.946
threshold=32.500000000000007 3.7772000000000001
decision_type=2 2
left_child=1 -1
right_child=-2 -3
leaf_value=0.12658374309539797 -1.9405319991020058 0.35131606998897735
leaf_weight=20 26 21
leaf_count=20 26 21
internal_value=0 0.241691
internal_weight=0 41
internal_count=67 41
shrinkage=0.05


Tree=191
num_leaves=3
num_cat=0
split_feature=1 5
split_gain=27351.9 186.768
threshold=29.950000000000003 3.7772000000000001
decision_type=2 2
left_child=1 -1
right_child=-2 -3
leaf_value=0.12025456368923187 -1.8435054279290715 0.33375022354580108
leaf_weight=20 26 21
leaf_count=20 26 21
internal_value=0 0.229606
internal_weight=0 41
internal_count=67 41
shrinkage=0.05


Tree=192
num_leaves=3
num_cat=0
split_feature=4 5
split_gain=34800 1217.31
threshold=9.928250000000002 3.7772000000000001
decision_type=2 2
left_child=1 -1
right_child=-2 -3
leaf_value=0.11424183666706085 -1.9331210056940717 0.66589994937181474
leaf_weight=20 27 20
leaf_count=20 27 20
internal_value=0 0.390071
internal_weight=0 40
internal_count=67 40
shrinkage=0.05


Tree=193
num_leaves=3
num_cat=0
split_feature=2 5
split_gain=23697 230.388
threshold=32.500000000000007 3.7772000000000001
decision_type=2 2
left_child=1 -1
right_child=-2 -3
leaf_value=0.10852972507476806 -1.6996571923677739 0.34564920053595594
leaf_weight=20 26 21
leaf_count=20 26 21
internal_value=0 0.229981
internal_weight=0 41
internal_count=67 41
shrinkage=0.05


Tree=194
num_leaves=3
num_cat=0
split_feature=2 2
split_gain=21386.6 30.1276
threshold=32.500000000000007 22.750000000000004
decision_type=2 2
left_child=1 -1
right_child=-2 -3
leaf_value=0.26030997059174948 -1.6146743620530917 0.17456279993057253
leaf_weight=21 26 20
leaf_count=21 26 20
internal_value=0 0.218482
internal_weight=0 41
internal_count=67 41
shrinkage=0.05


Tree=195
num_leaves=3
num_cat=0
split_feature=2 2
split_gain=19301.4 27.1902
threshold=32.500000000000007 22.750000000000004
decision_type=2 2
left_child=1 -1
right_child=-2 -3
leaf_value=0.24729451294101421 -1.5339405690248196 0.16583468079566957
leaf_weight=21 26 20
leaf_count=21 26 20
internal_value=0 0.207558
internal_weight=0 41
internal_count=67 41
shrinkage=0.05


Tree=196
num_leaves=3
num_cat=0
split_feature=1 5
split_gain=17419.5 221.327
threshold=29.950000000000003 3.7772000000000001
decision_type=2 2
left_child=1 -1
right_child=-2 -3
leaf_value=0.078141035735607156 -1.4572435699976409 0.31055063002166294
leaf_weight=20 26 21
leaf_count=20 26 21
internal_value=0 0.19718
internal_weight=0 41
internal_count=67 41
shrinkage=0.05


Tree=197
num_leaves=3
num_cat=0
split_feature=1 1
split_gain=15721.1 62.5131
threshold=29.950000000000003 20.750000000000004
decision_type=2 2
left_child=1 -1
right_child=-2 -3
leaf_value=0.12405686236917973 -1.3843813529381386 0.24757276262555805
leaf_weight=20 26 21
leaf_count=20 26 21
internal_value=0 0.187321
internal_weight=0 41
internal_count=67 41
shrinkage=0.05


Tree=198
num_leaves=2
num_cat=0
split_feature=4
split_gain=26746.8
threshold=9.928250000000002
decision_type=2
left_child=-1
right_child=-2
leaf_value=0.41930401965975767 -1.6174157248602974
leaf_weight=40 27
leaf_count=40 27
internal_value=0
internal_weight=0
internal_count=67
shrinkage=0.05


Tree=199
num_leaves=2
num_cat=0
split_feature=4
split_gain=24139
threshold=9.928250000000002
decision_type=2
left_child=-1
right_child=-2
leaf_value=0.39833886981010441 -1.5365449260782313
leaf_weight=40 27
leaf_count=40 27
internal_value=0
internal_weight=0
internal_count=67
shrinkage=0.05


Tree=200
num_leaves=2
num_cat=0
split_feature=5
split_gain=69382
threshold=4.6930500000000013
decision_type=2
left_child=-1
right_child=-2
leaf_value=-0.19092564760027708 3.4643058562278748
leaf_weight=37 20
leaf_count=37 20
internal_value=0
internal_weight=0
internal_count=57
shrinkage=0.05


Tree=201
num_leaves=2
num_cat=0
split_feature=4
split_gain=97974
threshold=8.4649000000000019
decision_type=2
left_child=-1
right_child=-2
leaf_value=-0.48702937710929561 3.8565428277850153
leaf_weight=37 20
leaf_count=37 20
internal_value=0
internal_weight=0
internal_count=57
shrinkage=0.05


Tree=202
num_leaves=2
num_cat=0
split_feature=3
split_gain=53811.6
threshold=34.250000000000007
decision_type=2
left_child=-1
right_child=-2
leaf_value=-0.18817395799689823 2.9966426690419516
leaf_weight=36 21
leaf_count=36 21
internal_value=0
internal_weight=0
internal_count=57
shrinkage=0.05


Tree=203
num_leaves=2
num_cat=0
split_feature=4
split_gain=83942.4
threshold=8.4649000000000019
decision_type=2
left_child=-1
right_child=-2
leaf_value=-0.47478822606640891 3.5457318228483206
leaf_weight=37 20
leaf_count=37 20
internal_value=0
internal_weight=0
internal_count=57
shrinkage=0.05


Tree=204
num_leaves=2
num_cat=0
split_feature=3
split_gain=44455.8
threshold=34.250000000000007
decision_type=2
left_child=-1
right_child=-2
leaf_value=-0.17736206204733918 2.7173874065989541
leaf_weight=36 21
leaf_count=36 21
internal_value=0
internal_weight=0
internal_count=57
shrinkage=0.05


Tree=205
num_leaves=2
num_cat=0
split_feature=4
split_gain=71988.7
threshold=8.4649000000000019
decision_type=2
left_child=-1
right_child=-2
leaf_value=-0.46173982197368474 3.2615233170986175
leaf_weight=37 20
leaf_count=37 20
internal_value=0
internal_weight=0
internal_count=57
shrinkage=0.05


Tree=206
num_leaves=2
num_cat=0
split_feature=4
split_gain=64969.8
threshold=8.4649000000000019
decision_type=2
left_child=-1
right_child=-2
leaf_value=-0.43865283067161975 3.0984472724795342
leaf_weight=37 20
leaf_count=37 20
internal_value=0
internal_weight=0
internal_count=57
shrinkage=0.05


Tree=207
num_leaves=2
num_cat=0
split_feature=4
split_gain=58635.2
threshold=8.4649000000000019
decision_type=2
left_child=-1
right_child=-2
leaf_value=-0.41672018154247392 2.9435249090194704
leaf_weight=37 20
leaf_count=37 20
internal_value=0
internal_weight=0
internal_count=57
shrinkage=0.05


Tree=208
num_leaves=2
num_cat=0
split_feature=4
split_gain=52918.3
threshold=8.4649000000000019
decision_type=2
left_child=-1
right_child=-2
leaf_value=-0.39588419666161412 2.7963485097885137
leaf_weight=37 20
leaf_count=37 20
internal_value=0
internal_weight=0
internal_count=57
shrinkage=0.05


Tree=209
num_leaves=2
num_cat=0
split_feature=3
split_gain=28078.2
threshold=34.250000000000007
decision_type=2
left_child=-1
right_child=-2
leaf_value=-0.15958211140500175 2.1409643661408198
leaf_weight=36 21
leaf_count=36 21
internal_value=0
internal_weight=0
internal_count=57
shrinkage=0.05


Tree=210
num_leaves=2
num_cat=0
split_feature=5
split_gain=29772.4
threshold=4.6930500000000013
decision_type=2
left_child=-1
right_child=-2
leaf_value=-0.18655594091963124 2.2078550976514815
leaf_weight=37 20
leaf_count=37 20
internal_value=0
internal_weight=0
internal_count=57
shrinkage=0.05


Tree=211
num_leaves=2
num_cat=0
split_feature=5
split_gain=26869.6
threshold=4.6930500000000013
decision_type=2
left_child=-1
right_child=-2
leaf_value=-0.17722815110071288 2.0974623414874078
leaf_weight=37 20
leaf_count=37 20
internal_value=0
internal_weight=0
internal_count=57
shrinkage=0.05


Tree=212
num_leaves=2
num_cat=0
split_feature=5
split_gain=24249.8
threshold=4.6930500000000013
decision_type=2
left_child=-1
right_child=-2
leaf_value=-0.16836674746025254 1.9925891453027724
leaf_weight=37 20
leaf_count=37 20
internal_value=0
internal_weight=0
internal_count=57
shrinkage=0.05


Tree=213
num_leaves=2
num_cat=0
split_feature=4
split_gain=38415.8
threshold=8.4649000000000019
decision_type=2
left_child=-1
right_child=-2
leaf_value=-0.39396678064320545 2.3258937137015163
leaf_weight=37 20
leaf_count=37 20
internal_value=0
internal_weight=0
internal_count=57
shrinkage=0.05


Tree=214
num_leaves=2
num_cat=0
split_feature=3
split_gain=18138
threshold=34.250000000000007
decision_type=2
left_child=-1
right_child=-2
leaf_value=-0.14886603719658323 1.7001536057108926
leaf_weight=36 21
leaf_count=36 21
internal_value=0
internal_weight=0
internal_count=57
shrinkage=0.05


Tree=215
num_leaves=2
num_cat=0
split_feature=3
split_gain=16369.6
threshold=34.250000000000007
decision_type=2
left_child=-1
right_child=-2
leaf_value=-0.14142274989022149 1.615145827900796
leaf_weight=36 21
leaf_count=36 21
internal_value=0
internal_weight=0
internal_count=57
shrinkage=0.05


Tree=216
num_leaves=2
num_cat=0
split_feature=1
split_gain=8406.63
threshold=26.400000000000002
decision_type=2
left_child=-1
right_child=-2
leaf_value=-0.037388380368550619 1.1924716005722682
leaf_weight=33 24
leaf_count=33 24
internal_value=0
internal_weight=0
internal_count=57
shrinkage=0.05


Tree=217
num_leaves=2
num_cat=0
split_feature=1
split_gain=7586.98
threshold=26.400000000000002
decision_type=2
left_child=-1
right_child=-2
leaf_value=-0.035518973885160503 1.1328480263551077
leaf_weight=33 24
leaf_count=33 24
internal_value=0
internal_weight=0
internal_count=57
shrinkage=0.05


Tree=218
num_leaves=2
num_cat=0
split_feature=3
split_gain=12891.4
threshold=34.250000000000007
decision_type=2
left_child=-1
right_child=-2
leaf_value=-0.14069884502225452 1.4181225617726645
leaf_weight=36 21
leaf_count=36 21
internal_value=0
internal_weight=0
internal_count=57
shrinkage=0.05


Tree=219
num_leaves=2
num_cat=0
split_feature=5
split_gain=14474.6
threshold=4.6930500000000013
decision_type=2
left_child=-1
right_child=-2
leaf_value=-0.17387722472886782 1.4956551575660706
leaf_weight=37 20
leaf_count=37 20
internal_value=0
internal_weight=0
internal_count=57
shrinkage=0.05


Tree=220
num_leaves=3
num_cat=0
split_feature=5 1
split_gain=52108.4 7253.93
threshold=5.8904000000000005 22.050000000000004
decision_type=2 2
left_child=1 -1
right_child=-2 -3
leaf_value=-0.15663100377373074 2.2725328022241591 -1.4123945137728817
leaf_weight=23 20 23
leaf_count=23 20 23
internal_value=0 -0.784513
internal_weight=0 46
internal_count=66 46
shrinkage=0.05


Tree=221
num_leaves=2
num_cat=0
split_feature=4
split_gain=56704.1
threshold=9.928250000000002
decision_type=2
left_child=-1
right_child=-2
leaf_value=1.432259342638222 -1.5206440269947052
leaf_weight=37 29
leaf_count=37 29
internal_value=0
internal_weight=0
internal_count=66
shrinkage=0.05


Tree=222
num_leaves=3
num_cat=0
split_feature=3 2
split_gain=62436.2 8979.76
threshold=39.100000000000009 23.750000000000004
decision_type=2 2
left_child=1 -1
right_child=-2 -3
leaf_value=-0.18740910136181377 2.4603101587295537 -1.5845922553020975
leaf_weight=23 20 23
leaf_count=23 20 23
internal_value=0 -0.886001
internal_weight=0 46
internal_count=66 46
shrinkage=0.05


Tree=223
num_leaves=2
num_cat=0
split_feature=4
split_gain=52418
threshold=9.928250000000002
decision_type=2
left_child=-1
right_child=-2
leaf_value=1.3691195742504016 -1.4699917974143193
leaf_weight=37 29
leaf_count=37 29
internal_value=0
internal_weight=0
internal_count=66
shrinkage=0.05


Tree=224
num_leaves=3
num_cat=0
split_feature=5 4
split_gain=49035.1 7186.77
threshold=5.8904000000000005 7.2254000000000005
decision_type=2 2
left_child=1 -1
right_child=-2 -3
leaf_value=-0.15812625651774201 2.1824316334724427 -1.4080628674963247
leaf_weight=23 20 23
leaf_count=23 20 23
internal_value=0 -0.783095
internal_weight=0 46
internal_count=66 46
shrinkage=0.05


Tree=225
num_leaves=3
num_cat=0
split_feature=3 2
split_gain=55167.4 6913.52
threshold=39.100000000000009 23.750000000000004
decision_type=2 2
left_child=1 -1
right_child=-2 -3
leaf_value=-0.23043655519900114 2.3020888619124888 -1.4563811779022218
leaf_weight=23 20 23
leaf_count=23 20 23
internal_value=0 -0.843409
internal_weight=0 46
internal_count=66 46
shrinkage=0.05


Tree=226
num_leaves=3
num_cat=0
split_feature=3 3
split_gain=49788.6 5936.93
threshold=39.100000000000009 28.800000000000001
decision_type=2 2
left_child=1 -1
right_child=-2 -3
leaf_value=-0.28062953126430512 2.1869842594861986 -1.4210109801519486
leaf_weight=25 20 21
leaf_count=25 20 21
internal_value=0 -0.801238
internal_weight=0 46
internal_count=66 46
shrinkage=0.05


Tree=227
num_leaves=3
num_cat=0
split_feature=1 2
split_gain=35184 4420.65
threshold=31.750000000000004 23.750000000000004
decision_type=2 2
left_child=1 -1
right_child=-2 -3
leaf_value=-0.20488325797993207 1.7889946596963064 -1.1962722080336377
leaf_weight=23 21 22
leaf_count=23 21 22
internal_value=0 -0.689562
internal_weight=0 45
internal_count=66 45
shrinkage=0.05


Tree=228
num_leaves=3
num_cat=0
split_feature=5 2
split_gain=35008.4 4074.21
threshold=5.8904000000000005 23.750000000000004
decision_type=2 2
left_child=1 -1
right_child=-2 -3
leaf_value=-0.1946390696193861 1.8405344283580782 -1.1357536984526593
leaf_weight=23 20 23
leaf_count=23 20 23
internal_value=0 -0.665196
internal_weight=0 46
internal_count=66 46
shrinkage=0.05


Tree=229
num_leaves=2
num_cat=0
split_feature=4
split_gain=54328.4
threshold=9.928250000000002
decision_type=2
left_child=-1
right_child=-2
leaf_value=1.359427780235136 -1.53095706783492
leaf_weight=37 29
leaf_count=37 29
internal_value=0
internal_weight=0
internal_count=66
shrinkage=0.05


Tree=230
num_leaves=3
num_cat=0
split_feature=3 2
split_gain=41276.4 4358.02
threshold=39.100000000000009 23.750000000000004
decision_type=2 2
left_child=1 -1
right_child=-2 -3
leaf_value=-0.25287852157717167 1.9812660169601441 -1.2262215048074723
leaf_weight=23 20 23
leaf_count=23 20 23
internal_value=0 -0.73955
internal_weight=0 46
internal_count=66 46
shrinkage=0.05


Tree=231
num_leaves=2
num_cat=0
split_feature=4
split_gain=50145.7
threshold=9.928250000000002
decision_type=2
left_child=-1
right_child=-2
leaf_value=1.300842681446591 -1.4760504335678857
leaf_weight=37 29
leaf_count=37 29
internal_value=0
internal_weight=0
internal_count=66
shrinkage=0.05


Tree=232
num_leaves=3
num_cat=0
split_feature=1 2
split_gain=29666.2 2203.9
threshold=31.750000000000004 23.750000000000004
decision_type=2 2
left_child=1 -1
right_child=-2 -3
leaf_value=-0.30527673120731896 1.6284211749122257 -1.0052748486399652
leaf_weight=23 21 22
leaf_count=23 21 22
internal_value=0 -0.647498
internal_weight=0 45
internal_count=66 45
shrinkage=0.05


Tree=233
num_leaves=2
num_cat=0
split_feature=4
split_gain=46399.4
threshold=9.928250000000002
decision_type=2
left_child=-1
right_child=-2
leaf_value=1.246512363438268 -1.4246377480441126
leaf_weight=37 29
leaf_count=37 29
internal_value=0
internal_weight=0
internal_count=66
shrinkage=0.05


Tree=234
num_leaves=3
num_cat=0
split_feature=3 2
split_gain=38091.7 2526.06
threshold=39.100000000000009 23.750000000000004
decision_type=2 2
left_child=1 -1
right_child=-2 -3
leaf_value=-0.35233851671218874 1.8908839440345766 -1.0933806867055271
leaf_weight=23 20 23
leaf_count=23 20 23
internal_value=0 -0.72286
internal_weight=0 46
internal_count=66 46
shrinkage=0.05


Tree=235
num_leaves=3
num_cat=0
split_feature=5 1
split_gain=30695.3 1547.29
threshold=5.8904000000000005 22.050000000000004
decision_type=2 2
left_child=1 -1
right_child=-2 -3
leaf_value=-0.35528996107370958 1.7010251426696776 -0.93526091964348501
leaf_weight=23 20 23
leaf_count=23 20 23
internal_value=0 -0.645275
internal_weight=0 46
internal_count=66 46
shrinkage=0.05


Tree=236
num_leaves=3
num_cat=0
split_feature=1 2
split_gain=23403.4 1322.08
threshold=31.750000000000004 23.750000000000004
decision_type=2 2
left_child=1 -1
right_child=-2 -3
leaf_value=-0.31569627277229145 1.4407069660368421 -0.85785880251364288
leaf_weight=23 21 22
leaf_count=23 21 22
internal_value=0 -0.580754
internal_weight=0 45
internal_count=66 45
shrinkage=0.05


Tree=237
num_leaves=2
num_cat=0
split_feature=4
split_gain=45707.5
threshold=9.928250000000002
decision_type=2
left_child=-1
right_child=-2
leaf_value=1.2242196875246796 -1.4269392979556117
leaf_weight=37 29
leaf_count=37 29
internal_value=0
internal_weight=0
internal_count=66
shrinkage=0.05


Tree=238
num_leaves=3
num_cat=0
split_feature=3 2
split_gain=31590.1 1698.4
threshold=39.100000000000009 23.750000000000004
decision_type=2 2
left_child=1 -1
right_child=-2 -3
leaf_value=-0.36112245036208113 1.7153163957595827 -0.9687549160874408
leaf_weight=23 20 23
leaf_count=23 20 23
internal_value=0 -0.664939
internal_weight=0 46
internal_count=66 46
shrinkage=0.05


Tree=239
num_leaves=2
num_cat=0
split_feature=4
split_gain=42319
threshold=9.928250000000002
decision_type=2
left_child=-1
right_child=-2
leaf_value=1.1744250167866011 -1.3765702426433564
leaf_weight=37 29
leaf_count=37 29
internal_value=0
internal_weight=0
internal_count=66
shrinkage=0.05


Tree=240
num_leaves=3
num_cat=0
split_feature=2 2
split_gain=7791.93 16314.7
threshold=26.750000000000004 20.750000000000004
decision_type=2 2
left_child=1 -1
right_child=-2 -3
leaf_value=-1.0803639079665854 -1.1305525839328767 0.89053777882031027
leaf_weight=21 32 21
leaf_count=21 32 21
internal_value=0 -0.0949131
internal_weight=0 42
internal_count=74 42
shrinkage=0.05


Tree=241
num_leaves=3
num_cat=0
split_feature=4 1
split_gain=15577.5 18512.2
threshold=10.778000000000004 20.750000000000004
decision_type=2 2
left_child=1 -1
right_child=-2 -3
leaf_value=-0.21100596227953511 0.59968627853827039 -2.1337019933121546
leaf_weight=31 22 21
leaf_count=31 22 21
internal_value=0 -0.987479
internal_weight=0 52
internal_count=74 52
shrinkage=0.05


Tree=242
num_leaves=3
num_cat=0
split_feature=2 2
split_gain=7146.37 15317.2
threshold=26.750000000000004 20.750000000000004
decision_type=2 2
left_child=1 -1
right_child=-2 -3
leaf_value=-1.0157954142207193 -1.0527581676840783 0.89390134783018205
leaf_weight=21 32 21
leaf_count=21 32 21
internal_value=0 -0.060947
internal_weight=0 42
internal_count=74 42
shrinkage=0.05


Tree=243
num_leaves=3
num_cat=0
split_feature=2 2
split_gain=6449.6 13823.7
threshold=26.750000000000004 20.750000000000004
decision_type=2 2
left_child=1 -1
right_child=-2 -3
leaf_value=-0.96500561946914309 -1.0001203597523272 0.84920630199568614
leaf_weight=21 32 21
leaf_count=21 32 21
internal_value=0 -0.0578997
internal_weight=0 42
internal_count=74 42
shrinkage=0.05


Tree=244
num_leaves=2
num_cat=0
split_feature=3
split_gain=5835.06
threshold=25.650000000000002
decision_type=2
left_child=-1
right_child=-2
leaf_value=0.014080843494998087 -0.87423068096763223
leaf_weight=36 38
leaf_count=36 38
internal_value=0
internal_weight=0
internal_count=74
shrinkage=0.05


Tree=245
num_leaves=3
num_cat=0
split_feature=2 5
split_gain=5336.16 12722.3
threshold=26.750000000000004 3.3145500000000006
decision_type=2 2
left_child=1 -1
right_child=-2 -3
leaf_value=-0.91958065430323277 -0.90640278980135924 0.82085334594760617
leaf_weight=21 32 21
leaf_count=21 32 21
internal_value=0 -0.0493637
internal_weight=0 42
internal_count=74 42
shrinkage=0.05


Tree=246
num_leaves=3
num_cat=0
split_feature=4 3
split_gain=16139.6 12367.3
threshold=10.778000000000004 24.150000000000002
decision_type=2 2
left_child=1 -1
right_child=-2 -3
leaf_value=-0.21895138382911683 0.73627189506183977 -1.7797133226286281
leaf_weight=30 22 22
leaf_count=30 22 22
internal_value=0 -0.879274
internal_weight=0 52
internal_count=74 52
shrinkage=0.05


Tree=247
num_leaves=3
num_cat=0
split_feature=2 2
split_gain=5026.23 8639.52
threshold=31.350000000000005 20.250000000000004
decision_type=2 2
left_child=1 -1
right_child=-2 -3
leaf_value=-0.91250515669584287 -0.99264319254004441 0.42041465704960213
leaf_weight=20 23 31
leaf_count=20 23 31
internal_value=0 -0.102299
internal_weight=0 51
internal_count=74 51
shrinkage=0.05


Tree=248
num_leaves=3
num_cat=0
split_feature=1 2
split_gain=4878.72 7221.13
threshold=31.350000000000005 20.250000000000004
decision_type=2 2
left_child=1 -1
right_child=-2 -3
leaf_value=-0.86687988072633759 -1.0271729910373688 0.33045342240263437
leaf_weight=20 20 34
leaf_count=20 20 34
internal_value=0 -0.113003
internal_weight=0 54
internal_count=74 54
shrinkage=0.05


Tree=249
num_leaves=3
num_cat=0
split_feature=2 2
split_gain=4627.64 10456.6
threshold=26.750000000000004 20.750000000000004
decision_type=2 2
left_child=1 -1
right_child=-2 -3
leaf_value=-0.78587572856673171 -0.79505728557705879 0.79199369407835463
leaf_weight=21 32 21
leaf_count=21 32 21
internal_value=0 0.00305898
internal_weight=0 42
internal_count=74 42
shrinkage=0.05


Tree=250
num_leaves=3
num_cat=0
split_feature=4 1
split_gain=15630.9 16128
threshold=10.778000000000004 20.750000000000004
decision_type=2 2
left_child=1 -1
right_child=-2 -3
leaf_value=-0.072888317463859431 0.79224650317972367 -1.867503539153508
leaf_weight=31 22 21
leaf_count=31 22 21
internal_value=0 -0.797637
internal_weight=0 52
internal_count=74 52
shrinkage=0.05


Tree=251
num_leaves=3
num_cat=0
split_feature=4 5
split_gain=14106.9 18223.5
threshold=10.778000000000004 3.7032500000000006
decision_type=2 2
left_child=1 -1
right_child=-2 -3
leaf_value=-0.017767005250789225 0.75263415466655381 -1.9417356157302856
leaf_weight=32 22 20
leaf_count=32 22 20
internal_value=0 -0.757755
internal_weight=0 52
internal_count=74 52
shrinkage=0.05


Tree=252
num_leaves=3
num_cat=0
split_feature=4 1
split_gain=12731.5 13157.6
threshold=10.778000000000004 20.750000000000004
decision_type=2 2
left_child=1 -1
right_child=-2 -3
leaf_value=-0.065252376516019145 0.71500243002718156 -1.6862033157121568
leaf_weight=31 22 21
leaf_count=31 22 21
internal_value=0 -0.719867
internal_weight=0 52
internal_count=74 52
shrinkage=0.05


Tree=253
num_leaves=3
num_cat=0
split_feature=4 1
split_gain=11490.2 11874.8
threshold=10.778000000000004 20.750000000000004
decision_type=2 2
left_child=1 -1
right_child=-2 -3
leaf_value=-0.06198976991638061 0.67925230210477661 -1.6018931491034374
leaf_weight=31 22 21
leaf_count=31 22 21
internal_value=0 -0.683874
internal_weight=0 52
internal_count=74 52
shrinkage=0.05


Tree=254
num_leaves=3
num_cat=0
split_feature=1 2
split_gain=5001.61 8104.29
threshold=29.050000000000001 20.250000000000004
decision_type=2 2
left_child=1 -1
right_child=-2 -3
leaf_value=-0.77334723532199856 -0.87679991307465921 0.51762415300453868
leaf_weight=20 23 31
leaf_count=20 23 31
internal_value=0 0.0113609
internal_weight=0 51
internal_count=74 51
shrinkage=0.05


Tree=255
num_leaves=3
num_cat=0
split_feature=1 2
split_gain=4513.95 7314.12
threshold=29.050000000000001 20.250000000000004
decision_type=2 2
left_child=1 -1
right_child=-2 -3
leaf_value=-0.73467984719201929 -0.83295997225719953 0.49174293772347516
leaf_weight=20 23 31
leaf_count=20 23 31
internal_value=0 0.0107928
internal_weight=0 51
internal_count=74 51
shrinkage=0.05


Tree=256
num_leaves=3
num_cat=0
split_feature=4 1
split_gain=11036.2 11346.6
threshold=10.778000000000004 20.750000000000004
decision_type=2 2
left_child=1 -1
right_child=-2 -3
leaf_value=-0.028152368866628214 0.6998786297711459 -1.5334222211724235
leaf_weight=31 22 21
leaf_count=31 22 21
internal_value=0 -0.63605
internal_weight=0 52
internal_count=74 52
shrinkage=0.05


Tree=257
num_leaves=3
num_cat=0
split_feature=1 2
split_gain=4340.72 6951.66
threshold=29.050000000000001 20.250000000000004
decision_type=2 2
left_child=1 -1
right_child=-2 -3
leaf_value=-0.69653825163841254 -0.79717581583106001 0.49911001663534871
leaf_weight=20 23 31
leaf_count=20 23 31
internal_value=0 0.0302283
internal_weight=0 51
internal_count=74 51
shrinkage=0.05


Tree=258
num_leaves=2
num_cat=0
split_feature=3
split_gain=4487.87
threshold=25.650000000000002
decision_type=2
left_child=-1
right_child=-2
leaf_value=0.18445947787000075 -0.59458603000170307
leaf_weight=36 38
leaf_count=36 38
internal_value=0
internal_weight=0
internal_count=74
shrinkage=0.05


Tree=259
num_leaves=3
num_cat=0
split_feature=4 5
split_gain=10704.7 13379
threshold=10.778000000000004 3.7032500000000006
decision_type=2 2
left_child=1 -1
right_child=-2 -3
leaf_value=0.038075714767910544 0.71974226981401446 -1.6104396490752699
leaf_weight=32 22 20
leaf_count=32 22 20
internal_value=0 -0.595969
internal_weight=0 52
internal_count=74 52
shrinkage=0.05


Tree=260
num_leaves=3
num_cat=0
split_feature=5 5
split_gain=56086.5 2922.99
threshold=5.131800000000001 3.7032500000000006
decision_type=2 2
left_child=1 -1
right_child=-2 -3
leaf_value=-0.52737992215901619 -3.2242164959961723 0.31721955935160318
leaf_weight=20 22 21
leaf_count=20 22 21
internal_value=0 -0.0947802
internal_weight=0 41
internal_count=63 41
shrinkage=0.05


Tree=261
num_leaves=2
num_cat=0
split_feature=1
split_gain=49762.5
threshold=29.050000000000001
decision_type=2
left_child=-1
right_child=-2
leaf_value=-0.025857420227466489 -2.919557263950507
leaf_weight=39 24
leaf_count=39 24
internal_value=0
internal_weight=0
internal_count=63
shrinkage=0.05


Tree=262
num_leaves=3
num_cat=0
split_feature=3 4
split_gain=21114.1 47.9878
threshold=36.850000000000009 7.0691000000000006
decision_type=2 2
left_child=1 -1
right_child=-2 -3
leaf_value=-0.45672704339027403 -2.3213958975943654 -0.34850826472753571
leaf_weight=20 22 21
leaf_count=20 22 21
internal_value=0 -0.401298
internal_weight=0 41
internal_count=63 41
shrinkage=0.05


Tree=263
num_leaves=3
num_cat=0
split_feature=3 4
split_gain=19055.5 43.3089
threshold=36.850000000000009 7.0691000000000006
decision_type=2 2
left_child=1 -1
right_child=-2 -3
leaf_value=-0.43389066576957708 -2.2053260990164496 -0.33108285917412666
leaf_weight=20 22 21
leaf_count=20 22 21
internal_value=0 -0.381233
internal_weight=0 41
internal_count=63 41
shrinkage=0.05


Tree=264
num_leaves=2
num_cat=0
split_feature=1
split_gain=39499.8
threshold=29.050000000000001
decision_type=2
left_child=-1
right_child=-2
leaf_value=0.014825955845224552 -2.5632729458312196
leaf_weight=39 24
leaf_count=39 24
internal_value=0
internal_weight=0
internal_count=63
shrinkage=0.05


Tree=265
num_leaves=2
num_cat=0
split_feature=1
split_gain=35648.5
threshold=29.050000000000001
decision_type=2
left_child=-1
right_child=-2
leaf_value=0.014084650824467341 -2.4351093865931035
leaf_weight=39 24
leaf_count=39 24
internal_value=0
internal_weight=0
internal_count=63
shrinkage=0.05


Tree=266
num_leaves=2
num_cat=0
split_feature=1
split_gain=32172.8
threshold=29.050000000000001
decision_type=2
left_child=-1
right_child=-2
leaf_value=0.01338043048595771 -2.3133538420001667
leaf_weight=39 24
leaf_count=39 24
internal_value=0
internal_weight=0
internal_count=63
shrinkage=0.05


Tree=267
num_leaves=3
num_cat=0
split_feature=5 5
split_gain=33641.6 3537.47
threshold=5.131800000000001 3.7032500000000006
decision_type=2 2
left_child=1 -1
right_child=-2 -3
leaf_value=-0.4588843989744783 -2.4066593712026423 0.4702605372383481
leaf_weight=20 22 21
leaf_count=20 22 21
internal_value=0 0.0170191
internal_weight=0 41
internal_count=63 41
shrinkage=0.05


Tree=268
num_leaves=2
num_cat=0
split_feature=1
split_gain=26753.1
threshold=29.050000000000001
decision_type=2
left_child=-1
right_child=-2
leaf_value=0.020399318368006975 -2.1013276288906737
leaf_weight=39 24
leaf_count=39 24
internal_value=0
internal_weight=0
internal_count=63
shrinkage=0.05


Tree=269
num_leaves=3
num_cat=0
split_feature=5 5
split_gain=28133.5 3340.41
threshold=5.131800000000001 3.7032500000000006
decision_type=2 2
left_child=1 -1
right_child=-2 -3
leaf_value=-0.43696015670895583 -2.1909042726863515 0.46593446845100045
leaf_weight=20 22 21
leaf_count=20 22 21
internal_value=0 0.0254981
internal_weight=0 41
internal_count=63 41
shrinkage=0.05


Tree=270
num_leaves=2
num_cat=0
split_feature=1
split_gain=22249.2
threshold=29.050000000000001
decision_type=2
left_child=-1
right_child=-2
leaf_value=0.026046196237588543 -1.9088562915722531
leaf_weight=39 24
leaf_count=39 24
internal_value=0
internal_weight=0
internal_count=63
shrinkage=0.05


Tree=271
num_leaves=3
num_cat=0
split_feature=5 1
split_gain=23532.3 3167.36
threshold=5.131800000000001 21.350000000000005
decision_type=2 2
left_child=1 -1
right_child=-2 -3
leaf_value=-0.41796094208955764 -1.9947112668644298 0.46123589561099099
leaf_weight=20 22 21
leaf_count=20 22 21
internal_value=0 0.0323594
internal_weight=0 41
internal_count=63 41
shrinkage=0.05


Tree=272
num_leaves=2
num_cat=0
split_feature=1
split_gain=18506.4
threshold=29.050000000000001
decision_type=2
left_child=-1
right_child=-2
leaf_value=0.030522889357346757 -1.7341441810131073
leaf_weight=39 24
leaf_count=39 24
internal_value=0
internal_weight=0
internal_count=63
shrinkage=0.05


Tree=273
num_leaves=2
num_cat=0
split_feature=1
split_gain=16702
threshold=29.050000000000001
decision_type=2
left_child=-1
right_child=-2
leaf_value=0.028996743758519489 -1.6474369267622633
leaf_weight=39 24
leaf_count=39 24
internal_value=0
internal_weight=0
internal_count=63
shrinkage=0.05


Tree=274
num_leaves=3
num_cat=0
split_feature=4 4
split_gain=9314.61 11911.3
threshold=10.984500000000001 7.2254000000000005
decision_type=2 2
left_child=1 -1
right_child=-2 -3
leaf_value=-0.20622303702614528 0.28063706897553947 -1.8921851554512976
leaf_weight=22 21 20
leaf_count=22 21 20
internal_value=0 -1.00906
internal_weight=0 42
internal_count=63 42
shrinkage=0.05


Tree=275
num_leaves=3
num_cat=0
split_feature=5 5
split_gain=18379.4 3206.77
threshold=5.131800000000001 3.7032500000000006
decision_type=2 2
left_child=1 -1
right_child=-2 -3
leaf_value=-0.37773451626300814 -1.7160640304738823 0.50691558633531841
leaf_weight=20 22 21
leaf_count=20 22 21
internal_value=0 0.075379
internal_weight=0 41
internal_count=63 41
shrinkage=0.05


Tree=276
num_leaves=2
num_cat=0
split_feature=1
split_gain=13815.3
threshold=29.050000000000001
decision_type=2
left_child=-1
right_child=-2
leaf_value=0.058141219615936282 -1.4665514578421912
leaf_weight=39 24
leaf_count=39 24
internal_value=0
internal_weight=0
internal_count=63
shrinkage=0.05


Tree=277
num_leaves=2
num_cat=0
split_feature=1
split_gain=12468.3
threshold=29.050000000000001
decision_type=2
left_child=-1
right_child=-2
leaf_value=0.055234142144521083 -1.3932238439718883
leaf_weight=39 24
leaf_count=39 24
internal_value=0
internal_weight=0
internal_count=63
shrinkage=0.05


Tree=278
num_leaves=2
num_cat=0
split_feature=2
split_gain=11252.6
threshold=31.350000000000005
decision_type=2
left_child=-1
right_child=-2
leaf_value=0.052472433371421628 -1.3235626836617789
leaf_weight=39 24
leaf_count=39 24
internal_value=0
internal_weight=0
internal_count=63
shrinkage=0.05


Tree=279
num_leaves=3
num_cat=0
split_feature=4 4
split_gain=10210.2 9129.51
threshold=10.984500000000001 7.2254000000000005
decision_type=2 2
left_child=1 -1
right_child=-2 -3
leaf_value=-0.19537038044496016 0.45203921738125036 -1.6713899928331377
leaf_weight=22 21 20
leaf_count=22 21 20
internal_value=0 -0.898237
internal_weight=0 42
internal_count=63 42
shrinkage=0.05


Tree=280
num_leaves=3
num_cat=0
split_feature=1 5
split_gain=40929.5 2713.76
threshold=31.750000000000004 3.7772000000000001
decision_type=2 2
left_child=1 -1
right_child=-2 -3
leaf_value=0.19368795156478882 2.4858916702724638 -0.5393019209737363
leaf_weight=28 21 23
leaf_count=28 21 23
internal_value=0 -0.136876
internal_weight=0 51
internal_count=72 51
shrinkage=0.05


Tree=281
num_leaves=3
num_cat=0
split_feature=2 4
split_gain=36938.9 3142.66
threshold=34.250000000000007 7.3449
decision_type=2 2
left_child=1 -1
right_child=-2 -3
leaf_value=0.18522663654819613 2.3615970573254996 -0.61868374943733218
leaf_weight=31 21 20
leaf_count=31 21 20
internal_value=0 -0.130032
internal_weight=0 51
internal_count=72 51
shrinkage=0.05


Tree=282
num_leaves=3
num_cat=0
split_feature=3 5
split_gain=39044.4 2711.78
threshold=39.100000000000009 3.7772000000000001
decision_type=2 2
left_child=1 -1
right_child=-2 -3
leaf_value=0.17904887625149318 2.4443139633536344 -0.54524402121702831
leaf_weight=28 20 24
leaf_count=28 20 24
internal_value=0 -0.15524
internal_weight=0 52
internal_count=72 52
shrinkage=0.05


Tree=283
num_leaves=3
num_cat=0
split_feature=2 5
split_gain=30515.9 2119.1
threshold=34.250000000000007 3.7772000000000001
decision_type=2 2
left_child=1 -1
right_child=-2 -3
leaf_value=0.1700964391231537 2.1426555463245935 -0.47762432616689932
leaf_weight=28 21 23
leaf_count=28 21 23
internal_value=0 -0.122013
internal_weight=0 51
internal_count=72 51
shrinkage=0.05


Tree=284
num_leaves=3
num_cat=0
split_feature=3 4
split_gain=32635.9 5027.54
threshold=39.100000000000009 7.6004000000000014
decision_type=2 2
left_child=1 -1
right_child=-2 -3
leaf_value=0.24008057713508607 2.2280671572685242 -0.77047346234321601
leaf_weight=32 20 20
leaf_count=32 20 20
internal_value=0 -0.148594
internal_weight=0 52
internal_count=72 52
shrinkage=0.05


Tree=285
num_leaves=3
num_cat=0
split_feature=3 4
split_gain=29453.9 4537.36
threshold=39.100000000000009 7.6004000000000014
decision_type=2 2
left_child=1 -1
right_child=-2 -3
leaf_value=0.22807654514908793 2.116663799285889 -0.73194977879524237
leaf_weight=32 20 20
leaf_count=32 20 20
internal_value=0 -0.141164
internal_weight=0 52
internal_count=72 52
shrinkage=0.05


Tree=286
num_leaves=3
num_cat=0
split_feature=3 5
split_gain=26582.1 1941.39
threshold=39.100000000000009 3.7772000000000001
decision_type=2 2
left_child=1 -1
right_child=-2 -3
leaf_value=0.14874043294361658 2.0108306622505192 -0.46409380634625752
leaf_weight=28 20 24
leaf_count=28 20 24
internal_value=0 -0.134106
internal_weight=0 52
internal_count=72 52
shrinkage=0.05


Tree=287
num_leaves=3
num_cat=0
split_feature=4 4
split_gain=26473.6 70711.4
threshold=9.928250000000002 6.8814000000000011
decision_type=2 2
left_child=1 -1
right_child=-2 -3
leaf_value=-0.53129125347843875 -0.87596299457550053 3.391243753433228
leaf_weight=27 25 20
leaf_count=27 25 20
internal_value=0 1.13787
internal_weight=0 47
internal_count=72 47
shrinkage=0.05


Tree=288
num_leaves=3
num_cat=0
split_feature=1 5
split_gain=22328.5 2062.31
threshold=31.750000000000004 3.7772000000000001
decision_type=2 2
left_child=1 -1
right_child=-2 -3
leaf_value=0.13984988161495754 1.788864887328375 -0.49913344694220502
leaf_weight=28 21 23
leaf_count=28 21 23
internal_value=0 -0.148319
internal_weight=0 51
internal_count=72 51
shrinkage=0.05


Tree=289
num_leaves=3
num_cat=0
split_feature=4 4
split_gain=24953.3 64274.2
threshold=9.928250000000002 6.8814000000000011
decision_type=2 2
left_child=1 -1
right_child=-2 -3
leaf_value=-0.51664336434117064 -0.88042410373687741 3.223088354468346
leaf_weight=27 25 20
leaf_count=27 25 20
internal_value=0 1.07473
internal_weight=0 47
internal_count=72 47
shrinkage=0.05


Tree=290
num_leaves=3
num_cat=0
split_feature=3 1
split_gain=24188.1 2196.06
threshold=39.100000000000009 22.050000000000004
decision_type=2 2
left_child=1 -1
right_child=-2 -3
leaf_value=0.097083589742923609 1.8537824273109438 -0.55714638881061385
leaf_weight=29 20 23
leaf_count=29 20 23
internal_value=0 -0.192287
internal_weight=0 52
internal_count=72 52
shrinkage=0.05


Tree=291
num_leaves=3
num_cat=0
split_feature=4 4
split_gain=23483.9 58391.7
threshold=9.928250000000002 6.8814000000000011
decision_type=2 2
left_child=1 -1
right_child=-2 -3
leaf_value=-0.5009601248635186 -0.88087343883514413 3.0635315515100956
leaf_weight=27 25 20
leaf_count=27 25 20
internal_value=0 1.01584
internal_weight=0 47
internal_count=72 47
shrinkage=0.05


Tree=292
num_leaves=3
num_cat=0
split_feature=4 4
split_gain=21194.3 52698.5
threshold=9.928250000000002 6.8814000000000011
decision_type=2 2
left_child=1 -1
right_child=-2 -3
